0.00605263 0.0107895 0.0163158 0.0131579 0.00763158 0.0134211 0.00894737 0.00710526 0.0152632 0.0162514 0.00473684 0.0171053 0.0092053 0.0072985 0.00230336 0.00999729 0.0163158 0.00868421 0.0165789 0.0157895 0.00289474 0.00236842 0.00815789 0.0105263 0.005 0.0176316 0.0126316 0.00473684 0.000789474 0.00210526 0.00131579 0.00789474 0.0144737 0.0163127 0.0139446 0.0124119 0.0144484 0.000716209 -0.00137661 0.0015355 0.00737455 0.0118661 0.0108525 0.00348951 0.00333233 0.0167733 0.0168095 0.00315881 0.000561521 0.0121621 0.0024759 0.00836579 0.0155263 0.0110526 0.0113158 0.00894737 0.00131579 0.00763158 0.005 0.0170765 0.00211867 0.00797384 0.0122538 0.00300866 0.00510443 0.00820545 0.00453888 0.0160508 0.00162496 0.0037732 0.00346325 0.00722711 0.00226471 0.012702 0.000884895 0.00364312 0.0185621 0.00805646 0.0138901 0.0127606 0.00837915 0.00459808 0.00894737 0.0115789 0.005 0.00736842 0.00465709 0.00346145 0.0133678 0.00568457 0.0129139 0.00728322 6.41338e-05 0.0129523 0.016994 0.00489642 0.00624009 -0.00552885 -0.00882764 0.0114273 0.0107693 0.0177115 0.0126269 -0.00283585 -0.0106789 0.0125969 0.00461654 0.00811557 0.0151391 0.00522975 0.00958393 0.00421053 0.00315789 0.0126316 0.00159051 0.000339803 0.00913659 0.00143294 -0.00467527 -0.00788233 -0.000151886 0.00687465 0.00349776 -0.00748416 0.00665337 -0.00116176 0.0115249 -0.00361077 0.0134128 0.00935211 -0.0853705 -0.0754173 0.00107732 0.0125788 0.0147229 0.0193818 0.0157661 0.000826748 0.0130064 0.0165116 0.00289474 0.00947368 0.0152927 0.00231413 0.0143026 -0.00326477 -0.0064489 -0.0133077 0.00406644 0.0186052 0.00122104 0.010844 0.0107605 -0.0278924 -0.00869164 -0.00920036 -0.0146517 -0.050059 -0.0892329 -0.0851849 -0.0637276 -0.0184366 0.0140422 0.018538 0.0117581 0.00313245 0.0165423 0.0150916 0.00105263 0.00183488 0.00251902 0.0034754 0.0180058 0.0151214 0.0338239 0.0159934 0.00580948 0.0247822 -0.00983619 0.0092038 0.0443121 -0.00840454 -0.0216247 -0.0471847 -0.0635746 -0.0609447 -0.123764 -0.0806036 -0.0695412 -0.0784439 -0.0101273 0.0336009 0.0121658 -0.00125515 0.00659408 0.0118072 0.00213025 0.0124058 0.00409706 0.00792513 0.0233567 0.0222431 0.0549552 0.0454042 0.0320997 0.0210376 0.0188257 0.000254883 -0.0116345 -0.00705748 -0.117552 -0.0772205 -0.0993595 -0.0821465 -0.0773088 -0.0590601 -0.0800012 -0.0808001 -0.00135302 0.0447742 0.0360369 0.00369312 0.00859474 0.00755025 0.000239886 0.0173269 0.0178978 0.0233626 0.0303445 0.0584088 0.0471062 0.068519 0.0203043 0.0368614 0.0411302 0.0131467 -0.0184964 -0.0597026 -0.0795621 -0.0717074 -0.0709076 -0.0801202 -0.00346032 -0.00553203 -0.0639495 -0.0959846 0.0140726 0.0322183 0.0297882 0.00798702 0.00294489 0.00335712 0.000894086 0.0184639 0.00994732 0.0174656 0.0295043 0.0144252 0.0236586 0.021617 -0.001607 0.0269029 -0.0011973 -0.0258619 -0.058955 -0.0764795 -0.0603624 -0.0978277 -0.0448606 -0.0604541 0.0103611 0.0183775 -0.0589814 -0.0592554 -0.00517578 0.0166101 0.0010237 -0.0057864 0.0102213 0.0125038 0.0162645 0.0036354 0.0225103 0.0236271 0.0232491 0.0155815 0.0171301 0.0412039 0.0224385 -0.00782107 -0.0365764 -0.0629554 -0.0996962 -0.076886 -0.0715586 -0.0858584 -0.0703624 -0.0832587 -0.00126447 0.0184592 -0.0605082 -0.0620536 -0.00107968 -0.00242199 -0.0105903 -0.0176147 0.00695799 0.0145271 0.00618429 0.0140849 0.0217848 0.0107989 0.0121867 0.0184751 0.012537 0.0537946 0.0104729 -0.0155787 -0.0449346 -0.0836362 -0.0788967 -0.000771296 -0.00565519 -0.0669434 -0.0842092 -0.0610406 -0.0478071 -0.062185 -0.126324 -0.0853132 0.00714564 0.0043373 -0.00170364 0.0104586 0.0159773 0.00169685 0.01 0.00197442 0.0136661 0.0162011 -0.0159585 0.0124474 -0.00656843 -0.00131271 -0.0283234 -0.0489823 -0.103466 -0.0931631 -0.0184999 -0.00395348 -0.0627355 -0.0648187 -0.0285505 0.0127296 -0.051765 -0.0700376 -0.0899871 -0.0525503 0.0134499 0.0338142 0.0189291 0.0201115 0.019954 0.00475948 0.00973684 0.0161758 0.00284378 -0.000318204 -0.0410073 -0.0110858 0.0129423 -0.0809363 -0.0621988 -0.0857083 -0.0798217 0.00292816 -0.033885 -0.0559892 -0.0769719 0.0255407 0.0517788 0.00335203 -0.0395837 -0.0463309 -0.0537413 -0.0602406 0.0237763 0.0372501 0.0311982 0.0125322 0.00503798 0.00582595 0.0102632 0.0119471 0.0026093 0.000139046 -0.00754507 -0.00050216 0.00141417 -0.0962064 -0.131245 -0.0376305 -0.0212991 -0.00508187 -0.0531814 -0.0411275 -0.0329711 -0.0171004 -0.00814951 0.0281551 -0.00678445 0.0444718 -0.0574218 -0.0773571 0.00169951 0.022961 0.0221606 0.0113294 0.011028 0.00536497 0.0052676 0.0056065 0.0031526 0.0128873 0.00154521 -0.0129919 -0.0766431 -0.0972659 -0.105141 0.00980904 -0.0224917 -0.0461949 -0.0591365 -0.0274521 0.0159907 0.00922341 0.0117786 0.0404135 -0.0259629 0.0134661 -0.0629422 -0.0585873 0.0309703 0.0216304 0.00525118 0.0182097 0.00226442 0.00791747 0.00134113 0.00308341 0.00464211 0.0143407 -0.0103561 -0.0798997 -0.0553295 -0.0408603 -0.0554873 0.0383691 -0.0233118 -0.0612518 -0.00269883 0.0134028 -0.00637252 0.0525775 0.0548949 0.00379738 -0.0367948 -0.0180949 -0.0641426 -0.0629499 -0.00132136 0.00617594 0.00380727 0.0107178 -0.00485006 0.0152147 0.00973684 0.00918308 0.0115267 0.00480734 -0.00515631 -0.0567683 -0.0658376 -0.052954 0.0212538 0.0504622 -0.00807791 0.0122644 0.0325508 0.0608445 0.0796218 -0.00324178 0.0277402 -0.0133175 -0.0255242 -0.0572501 -0.0471231 -0.088596 -0.00314771 -0.0068744 0.00604509 0.0155877 0.00818174 0.00933861 0.00603933 0.0147367 0.00516938 -0.010802 -0.0211674 -0.0701493 -0.0831321 -0.0395196 0.0291726 0.0646622 0.00222527 0.0114755 0.0948314 0.0847773 0.0240172 -0.023279 -0.0170958 -0.0260735 -0.0978492 -0.100204 -0.0786392 -0.0400678 -0.00958366 0.0109023 0.0111938 0.011703 0.000733842 0.0102775 0.00789474 0.00825402 0.0155956 -0.000900903 -0.0200967 -0.0937075 -0.0985645 -0.0388628 -0.0497118 0.0539676 0.0377805 0.0117314 0.0359133 0.0409908 0.00371928 0.0134525 -0.0671799 -0.0841749 -0.126963 -0.108488 -0.0281816 -0.019971 0.00401013 0.0156252 -0.00449455 0.000882316 0.000979563 0.0162012 0.00473684 0.0155982 0.0137426 -0.0147973 -0.0273074 -0.052285 -0.09889 -0.0486717 -0.0758983 -0.0678387 -0.0159856 0.00914231 0.0702037 -0.0426831 -0.0352191 -0.00417594 -0.0814072 -0.111743 -0.105768 -0.04234 -0.0187412 -0.0118585 -0.00353448 0.0101748 0.00436076 0.0113715 0.00813241 0.0092107 0.0150064 0.00669044 0.00476162 -0.00789561 -0.0218963 -0.0305494 -0.0386146 -0.0932817 -0.0844557 -0.0803966 -0.0627544 -0.0592135 -0.0310394 -0.0282811 -0.063322 -0.0450963 -0.0464306 -0.0310863 -0.0493634 -0.0472693 -0.019054 -0.0206844 0.0117905 0.00639473 0.0023078 0.0141154 0.013439 0.00447368 0.016322 0.00789674 0.013448 0.00471196 -0.00478791 0.00913432 -0.000667913 0.000772512 -0.0427386 -0.063169 -0.0659618 -0.089936 -0.0688033 -0.0857269 -0.0764374 -0.0359082 0.00187338 -0.0322164 -0.0438681 -0.0190238 -0.0191542 -0.00549462 -9.89875e-05 0.00727849 0.012011 0.00146208 0.00110558 0.00736842 0.0126316 0.00289474 0.0153497 -0.0100754 -0.00843927 -0.0164648 -0.0216553 -0.00106251 0.000832106 -0.0356439 -0.0990744 -0.109214 -0.0712235 -0.0383305 -0.0423873 0.0450694 0.0269312 -0.00035356 -0.00845007 0.0155694 -0.0163904 0.011194 0.00144765 -0.00114958 0.0124306 0.0138864 0.00590397 0.005 0.00789474 0.0136842 0.0100066 -0.00118494 -0.0116769 -0.00727524 -0.0340686 -0.0556596 -0.0235016 -0.00543947 -0.011291 0.0331983 0.00991474 -0.0159086 0.00542079 0.0608741 0.0324474 -0.0158416 -0.000378257 0.0127534 -0.0151045 -0.00688954 0.00408685 -0.00921892 0.0117383 0.0145982 0.013915 0.0118421 0.0160526 0 0.0155017 0.0167494 -0.000692889 -0.0112038 -0.00469444 -0.00190509 -0.0142136 -0.0125818 -0.019267 -0.00926933 -0.0362194 -0.0167014 0.0190918 0.0434261 0.0179087 0.00459863 -0.0197222 -0.0222643 -0.0303686 0.000975208 -0.00389613 0.00845982 0.0140921 0.0041635 0.00473228 0.00763158 0.000526316 0.000263158 0.0142105 0.00229317 0.000706491 0.00128469 0.00109268 0.00731382 0.00531202 0.00590157 -0.0109077 -0.0229845 -0.0286555 -0.0152379 -0.0208555 -0.0182437 -0.00261154 -0.0179501 -0.018861 -0.0149638 -0.011697 -0.00527687 0.0152163 6.79446e-05 0.0076138 0.00578947 0.000789474 0.00710526 0.00447368 0.00789474 0.0121053 0.00842105 0.000789474 0.00605459 0.00492085 0.0109951 0.00726802 0.016763 0.0104387 0.00872647 0.00267351 0.0167998 0.00722566 0.00997715 0.0077188 0.0133441 0.0153605 0.0157799 -1.29369e-05 0.00512132 0.0107641 0.0035528 0 0.01 0.000526316 0.0171053 0.00684211 0.000263158 0.00552632 0.000789474 0.00105263 0.00605263 0.0160526 0.00552632 0.00184211 0.00186805 0.0121053 0.0168421 0.0164699 0.0142169 0.00860865 0.01526 0.00105263 0.00973684 0.0126316 0.015 0.00578947 0.0160526 0.00394737 0 0.0126316 0.000526316 0.00368421 0.00605263 0.0155263 0.0123684 0.00526316 0.00157895 0.00263158 0.00553138 0.00700159 0.0157657 0.00395493 0.0117249 0.00996762 0.00948061 0.00273252 0.0174873 0.00770944 0.0170061 0.000941583 0.0172016 0.0179303 0.00140639 0.00531784 0.0157147 0.00106844 0.00418881 0.00526316 0.0107895 0.00947368 0.0134211 0.00684211 0.0131579 0.00947368 0.00472868 0.00956677 0.0113817 0.005625 0.00961408 0.00405046 -0.00765319 -0.00821193 0.00832413 0.025319 0.0179535 0.00749018 0.00492835 0.0155464 -0.00835256 -0.00192987 0.0111633 0.00479449 0.00710626 0.00802156 0.0124717 0.00147061 0.00541062 0.00789474 0.0102632 0.00947368 0.005 0.0141078 0.00422535 0.00959046 0.0124849 0.00758892 0.00431096 -0.00375123 -0.0190248 -0.0275954 -0.0184467 -0.0173934 -0.0248066 -0.00671922 -0.0224276 -0.0691542 -0.06448 -0.0199213 -0.00708148 0.0317222 0.0398157 0.0205004 0.00734835 0.00575693 0.0190537 0.00788403 0.00342105 0.0139474 0.00947368 0.00802872 0.00942956 0.015355 0.00272345 0.000900595 -0.00177916 -0.0512455 -0.0600839 -0.0486 -0.0393618 -0.030965 -0.0250411 -0.0469662 -0.0286164 -0.108198 -0.0814244 -0.0381032 -0.0702495 -0.04585 0.0463651 0.0257386 0.0206778 0.0118354 0.00307101 0.0153862 0.00727765 0.00473684 0.00394737 0.00978329 0.0058572 -0.00829317 0.00250205 -0.0125184 -0.0205065 -0.00795556 0.00323055 0.000762508 -0.0216022 -0.0267821 -0.0496717 -0.0286923 -0.0853744 -0.0797635 -0.0216462 -0.0510069 -0.100092 -0.0828451 -0.0112009 0.0262927 0.0305096 0.0202554 0.00399492 0.0194665 0.00865774 0.000263158 0.0152296 0.01566 0.0149634 -0.00187322 0.00877507 0.00193753 0.02052 0.0509257 0.0225287 0.0304737 0.0507277 0.0489559 0.00738762 -0.00711759 -0.0475791 -0.0444733 -0.0359577 -0.0140243 -0.0577667 -0.0635099 -0.0320773 0.0292523 -0.0185247 0.0224203 0.0294455 0.0273341 0.00372159 2.6772e-05 0.0144893 0.0203446 0.00273768 -0.0183832 -0.0177383 0.0173258 0.0413498 0.0203626 4.73905e-05 0.0701653 0.126018 0.066378 -0.0219535 0.0202055 -0.0545168 -0.0374555 -0.00644718 -0.0504102 -0.0442984 0.0278097 -0.0382527 -0.021867 -0.0168345 0.00901588 0.017473 0.026026 0.00440931 0.0133691 0.014727 0.0138704 -0.00362823 -0.0390926 -0.0213792 -0.0377827 -0.0071001 0.0537851 0.0313814 0.0146205 0.0158578 -0.0506903 -0.0442599 0.0866807 0.158826 -0.0387812 -0.0489305 -0.0994519 -0.10768 -0.0295431 -0.106592 -0.0854862 -0.0179234 -0.00865386 0.0274049 0.0172349 0.0116187 0.00590279 0.00583156 0.0192414 -0.00295142 0.00643398 -0.0115997 -0.0347154 -0.0176492 0.0338638 -0.00237482 -0.0545346 -0.0217587 0.0737239 0.0652936 0.0934609 0.0427138 -0.0664295 -0.114597 -0.126925 -0.148134 -0.156007 -0.111441 -0.0485145 -0.0191435 0.0382419 0.0438459 0.00851029 0.0183743 0.0123353 0.0181863 0.0322299 0.0182416 -0.000924175 0.00647733 -0.0301803 -0.0338817 0.0150689 0.00586025 -0.12413 0.0101179 0.0678746 0.0513856 -0.00451462 -0.0640479 -0.0834445 -0.0786552 -0.0487207 -0.159961 -0.185036 -0.122664 -0.0890692 -0.0553414 0.0383797 0.0383209 0.00028502 0.0126156 0.0011962 0.00825422 0.023554 0.00398403 -0.00428705 -0.0394467 -0.012438 -0.0199286 -0.0351581 -0.0757042 -0.0858655 0.0157307 0.0594974 -0.0310496 -0.12927 -0.129282 -0.120856 -0.0520354 0.0615702 -0.104621 -0.159028 -0.132495 -0.124019 -0.0820302 -0.0327254 0.00963478 0.00282445 0.00844581 0.0126316 0.00842413 0.00725792 0.0102554 -0.0224325 -0.0427524 0.00761155 0.0188586 0.000787023 -0.0846697 0.0266652 0.000114468 -0.0177473 -0.141135 -0.196048 -0.0992413 -0.119958 -0.105982 0.00976852 -0.101475 -0.0967992 -0.124966 -0.100334 -0.0940008 -0.0555584 -0.00443045 0.00496269 0.0131497 0.00894737 0.00741572 0.00430317 0.0186358 -0.0117282 -0.0101602 0.0580492 0.0840716 -0.0313547 -0.0488158 0.0743919 0.00588907 -0.0844848 -0.193844 -0.122547 -0.1403 -0.0993295 -0.105643 -0.00898654 -0.030746 -0.00564707 0.0202804 -0.00949128 0.0120624 -0.00188314 -0.0125454 0.00382076 0.00925534 0.0160526 0.0148696 0.0171146 0.0203385 0.0209714 0.00975684 0.0814383 0.0979348 -0.00392487 0.0261832 0.000400883 -0.108363 -0.147569 -0.182109 -0.117499 -0.0723121 -0.0542364 -0.105813 0.0195507 0.00211443 0.0523506 0.0768473 0.0931894 0.0788332 0.029514 0.0146535 0.00100296 0.014483 0.00500487 0.00692465 0.0112864 0.0107039 0.00404252 -0.000664559 0.036176 0.0244123 -0.0558034 -0.0333166 -0.0189357 -0.0907788 -0.153395 -0.220423 -0.165903 -0.0371354 -0.023815 -0.0233256 0.0659764 -0.0225314 0.042698 0.0547411 0.0541917 0.0631467 0.0272396 0.0113988 0.00565963 0.00979337 0.00134358 0.0160723 0.00261981 0.00932942 0.00650789 0.0244956 0.00402261 -0.0217705 -0.0490068 -0.0573845 -0.0517156 -0.118355 -0.151992 -0.127937 0.00397472 0.125178 -0.0583106 -0.0641979 0.0739153 0.0704172 0.104988 0.064177 0.0345238 0.0283403 -0.00266725 0.00465082 0.0163983 0.00884174 0.0157895 0.00939877 0.00469397 0.0155304 0.0118147 0.0311091 0.0179128 -0.0808686 -0.0655836 -0.0578683 -0.0403455 -0.146376 -0.164454 -0.146929 0.0405293 0.0916997 -0.0809195 -0.00627359 0.115114 0.0323418 0.0110517 0.012282 0.00229369 0.0030197 -0.00511024 0.0111201 0.0180073 0.00417811 0.0168527 0.00473673 0.00923416 0.0131413 0.0505109 0.00312843 -0.0451042 -0.0789359 -0.10748 -0.114393 -0.111736 -0.105834 -0.140488 -0.0845578 0.0669538 0.0708828 -0.00587261 0.0379788 0.00576957 -0.00244432 -0.0171375 0.0298135 -0.0176656 8.58425e-05 -0.00995475 0.0044969 0.0102181 0.0160921 0.0165789 0.00128996 0.0160563 0.00989223 0.0564766 0.0167103 -0.0291052 -0.0965016 -0.0731021 -0.0806489 -0.122917 -0.0456607 -0.0140371 0.095494 0.186792 0.0756194 -0.0653305 -0.0424078 -0.0755565 -0.026045 0.010592 -0.000528886 -0.0520875 -0.0174942 -0.000709738 0.0186458 0.00773537 0.00824565 0.01 0.0151862 0.0124191 0.0142648 0.037006 0.0200622 -0.0618834 -0.133243 -0.063351 -0.0875412 -0.0836536 0.0209672 0.0284386 0.0852973 0.116133 -0.00954477 -0.0640605 -0.0315536 0.00430535 -0.0287312 -0.0503808 -0.0834526 -0.0351977 -0.0155826 0.00916422 0.0173657 0.0136839 0.00921078 0.00396132 0.0114168 0.00459268 0.00217221 0.0249344 -0.000335089 -0.0973311 -0.131571 -0.0894794 -0.0543251 -0.0351753 -0.00477326 -0.00876058 0.0400119 0.0426026 -0.0953491 -0.01274 -0.0132629 0.000252898 -0.0302164 -0.0382479 -0.02615 -0.0235973 0.00585412 0.0112835 0.0105322 0.000420423 0.0144737 0.00159256 0.00368858 0.0147134 0.0120056 0.0130425 -0.00589088 -0.051349 -0.0766184 -0.0379703 -0.0226463 0.0103134 -0.0489986 0.0252519 0.00199369 -0.0406512 -0.0979073 0.0635121 0.02178 -0.0259434 -0.0150061 -0.0321028 -0.00510691 -0.00897614 -0.00781448 0.00474858 0.00644629 0.0164588 0.00868421 0.0139474 0.0118421 0.00187694 0.0112005 -0.000140698 0.00986304 0.0344981 0.0271295 -0.00634161 -0.014737 0.00359667 -0.0517412 -0.0410138 -0.104172 -0.068588 -0.101561 -0.0117752 -0.0426575 -0.0695264 -0.0341043 -0.0257824 -0.0187594 -0.00518278 0.000692558 0.0102108 0.00280577 0.0179081 0.00552632 0.0160526 0.000526316 0.00790813 0.00433496 0.0100661 0.0346874 0.0364553 0.0456966 0.0302772 -0.023183 -0.0692656 -0.0683526 -0.0785212 -0.0279619 -0.0766299 -0.0728901 -0.0455217 0.0338341 0.00267698 -0.0264135 -0.00805486 0.00556463 0.00435799 -0.0022299 0.0162723 0.00228449 0.000602044 0.00105263 0.0165789 0.00473684 0.00873405 0.00571673 0.00992945 0.00519493 0.0147141 0.0242538 0.0221279 -0.0323725 -0.101497 -0.0124322 0.0421263 0.0308939 -0.0761428 -0.0312248 0.0285897 0.0140437 -0.00189949 0.00497584 -0.00591582 0.0166981 0.0151018 0.0109454 0.00984699 0.00421379 0.0045293 0.0134211 0.01 0.00815789 0.00157895 0.014517 0.01081 0.00299935 0.00357807 0.00928215 0.00163389 0.00696685 0.0137431 0.011197 0.0172537 0.0610879 -0.0135127 -0.011919 0.030338 -0.000144592 -0.000448682 0.0235607 0.00118269 0.00508914 0.00859263 0.010863 0.010267 0.00447368 0.0142105 0.0128947 0.000789474 0.0171053 0.0123684 0.0134211 0.0157895 1.46831e-06 0.0141499 2.12197e-05 0.0112224 0.00727174 -0.0019859 -0.00496484 0.0072829 0.0133659 0.00193967 0.0102329 0.00849917 0.0112962 0.0129676 0.0113813 0.00965671 0.0131857 0.00208301 0.00243916 0.00684211 0.0131579 0.00657895 0.0139474 0.0131579 0.000263158 0.0107895 0.0136842 0.0147368 0.00894737 0.00763158 0.00894737 0.00815789 0.0121134 0.0176316 0.00815789 0.00662964 0.015238 0.0103195 0.00788612 0.00131579 0.000789474 0.00789474 0.0144737 0.00921053 0.00342105 0.00894737 0.0144737 0.0128947 0.0105263 0.0173684 0.00552632 0.00368421 0.000526316 0.00868421 0.000789474 0.0118421 0.0118416 0.00917994 0.00722901 0.00732896 0.0121388 0.00606902 0.00481084 0.000185348 -0.00024246 0.00637447 0.00536193 0.0111746 0.0113579 0.00853901 0.00311313 0.00168034 0.0108167 0.0119445 0.00327386 0.00921053 0.0131579 0.0168421 0.00131579 0.0136842 0.0115789 0.0136842 0.00257123 0.00142096 0.00805326 0.0148313 0.0111051 -0.00125626 0.0092036 0.00239756 -0.00875381 -0.0131187 -0.00343814 0.00574356 0.0148843 0.0164341 0.0129814 0.0155327 0.015482 0.0162662 0.0162509 0.0108626 0.0108667 0.0112854 0.0159261 0.00210526 0.0126316 0.0102632 0.00868421 0.00802889 0.0155804 0.00914283 0.00323784 0.0120582 0.0124013 0.00194266 -0.00158585 -0.010157 -0.0186515 -0.0110216 -0.0245635 -0.00468407 -0.0167813 -0.0237331 -0.005693 0.0106956 0.0394238 0.0410403 0.036736 0.0382826 0.0180261 0.0066506 0.00141422 0.0134287 0.0139474 0.0105263 0.00157895 0.000987089 0.0146241 0.00199046 0.00730101 0.00837248 0.0118771 0.0122107 -0.00292744 -0.00353362 -0.0304078 -0.0477643 -0.00610186 0.00401208 0.0237446 0.0360945 -0.0351111 -0.0855986 -0.0657994 0.00615855 0.0434433 0.0497207 0.0314388 0.0200618 0.0167396 0.00144405 0.000988415 0.00842105 0.00368421 0.00482356 0.00720677 -0.000681219 -0.00402532 0.00993489 0.00676305 -0.0133177 -0.00117651 -0.0580177 -0.123878 -0.145129 -0.182924 -0.0678113 0.00231157 0.00280421 -0.0767254 -0.0804385 -0.0593367 -0.0623646 -0.0280929 0.0668022 0.0781631 0.038524 0.00177806 0.0125761 0.00134558 0.000263158 0.0171357 0.013734 0.000812273 -0.0157372 0.0159486 0.0277819 0.0353044 0.000613549 -0.00614574 0.00503149 -0.0205592 -0.0247161 -0.12374 -0.135332 -0.146461 -0.14313 -0.134311 -0.126891 -0.0816406 -0.0646757 -0.129419 0.011912 0.0735327 0.0475504 0.0285923 0.0175648 0.00807521 0.0110702 0.0152094 0.013614 0.00171306 0.00142021 0.0180764 0.0401941 0.0627899 -0.0177864 -0.00378747 0.0584924 0.108779 0.0129881 -0.0536742 -0.146355 -0.214115 -0.196249 -0.0839255 -0.0972789 -0.075078 -0.067589 -0.136466 -0.0325165 0.0437186 0.0536862 0.038271 0.0225178 0.0112424 0.0127407 0.00441445 0.00700002 0.0132953 0.0182015 0.0289787 0.00862866 0.0385251 -0.0699356 0.00538294 0.0154481 0.0562046 0.0290547 -0.0625778 -0.0868077 -0.128293 -0.174914 -0.0812479 -0.0388703 -0.0424196 -0.11288 -0.169544 -0.0315774 0.027275 0.052954 0.0482976 0.0153094 0.0072642 0.0103919 0.0195572 0.0152151 0.0304943 0.0679001 0.0112753 -0.0185514 -0.0341892 -0.00270872 -0.0179244 -0.138132 -0.0809519 -0.012345 -0.0757291 -0.0947718 -0.136926 -0.180442 -0.156064 -0.0844958 -0.0790266 -0.204869 -0.139459 -0.00279365 0.0164215 0.034378 0.0461236 0.00885211 0.0153917 0.0029135 0.0165879 0.0286771 0.0404293 0.0526349 -0.0314503 -0.0638289 -0.0696281 -0.0228603 -0.0750117 -0.183579 -0.126052 -0.0618048 0.0141727 -0.0761012 -0.0773244 -0.110479 -0.100461 -0.0730681 -0.0856818 -0.204182 -0.167615 -0.0293077 -0.0257476 -0.000332212 0.0272918 0.0180403 0.00485576 0.0036082 0.00955815 0.0288252 0.0455447 0.0281385 -0.0540726 -0.0759616 -0.0560232 -0.0989704 -0.110759 -0.154014 -0.207159 -0.0469826 0.0897789 0.0538831 -0.0346002 -0.0838456 -0.0616836 -0.0846759 -0.184504 -0.267654 -0.237342 -0.0898054 -0.0373223 -0.0201041 0.00406138 0.00509741 0.000445099 0.00342105 0.0134878 0.0119508 0.0134648 -0.00980248 -0.0508333 -0.0535122 -0.0382876 -0.086375 -0.118865 -0.0846052 -0.139033 0.134641 0.0757027 -0.0312724 -0.0664947 -0.0193426 -0.0307535 -0.138315 -0.202167 -0.217604 -0.230228 -0.0785661 -0.039311 -0.00913124 0.0134565 0.0104816 0.00195574 0.0134211 0.00163463 0.0187205 0.00818869 -0.0294425 -0.0172662 0.0300553 -0.112155 -0.125309 -0.117036 -0.0283099 -0.00407486 -0.0119465 -0.00270546 -0.0369969 -0.0202126 0.0284697 -0.0187728 -0.0663833 -0.149082 -0.147382 -0.162124 -0.0341204 0.0246466 0.00889503 0.0095537 0.00271404 0.00706667 0.00552632 0.00648372 0.021561 0.0150286 0.0159484 0.0239737 0.0121377 -0.116007 -0.0972442 0.0798693 0.0790416 -0.0231357 -0.0248679 -0.0263002 0.0143042 -0.0309516 -0.0603192 0.00299432 -0.0840242 0.00313947 -0.0792651 -0.111406 0.0471428 0.0566204 0.00378875 0.00162086 -0.0156525 0.0167971 0.00447981 0.00856684 0.00775309 0.0321685 0.00810122 -0.0209085 -0.0982189 -0.106659 -0.144607 0.0410059 0.0376352 -0.0722892 -0.048953 -0.0736674 0.0471495 -0.0305819 -0.0736098 -0.0170612 -0.0444138 0.0531525 -0.0039654 -0.00177339 0.12182 0.0965786 0.0301078 0.00998768 0.00141583 0.0145027 0.0155613 0.0126464 0.00627523 0.0256705 0.0123086 -0.108439 -0.104594 -0.0936875 -0.138254 0.0153887 -0.0493082 -0.104727 -0.0742885 -0.0627244 0.0260481 0.100478 0.050454 -0.00343246 0.0835363 0.127842 0.0244558 0.0138417 0.0669315 0.0667244 0.0234027 -0.0152301 -0.0209804 0.00395158 0.01 0.00712384 0.0152051 0.0341025 0.0156909 -0.0839216 -0.118113 -0.113842 -0.0820269 -0.0717172 -0.10901 -0.0967769 -0.0506423 -2.99949e-05 0.190295 0.104305 0.0775165 0.0134711 0.0614585 -0.00790616 -0.0151982 -0.0317134 0.0130888 -0.00147853 -0.0311565 -0.0393321 0.000413492 0.0167518 0.016232 0.000526584 0.00942496 0.0375992 0.0356585 -0.0797229 -0.136898 -0.123661 -0.0631141 -0.0253363 -0.137833 -0.100437 -0.00913393 0.0488674 0.129075 0.0666827 0.0483352 0.0250126 -0.0815298 -0.114652 -0.0975405 0.00198717 -0.036486 -0.0443787 -0.0411528 -0.0163951 0.00757667 0.00188733 0.005 0.0107426 0.0105088 0.0388014 0.0401226 -0.0595032 -0.104312 -0.102676 -0.109547 0.0486274 -0.0442109 -0.0269283 -0.0525098 0.0666823 0.104911 0.0799777 -0.0245757 -0.11587 -0.151611 -0.153558 -0.0221725 -0.0013857 -0.0661055 -0.0307202 -0.0173748 0.0033913 0.00483997 0.0120678 0.0118421 0.00148766 0.00968109 0.0104695 0.0285715 -0.0325051 -0.116458 -0.101616 -0.104832 -0.0553848 -0.0882919 0.0276218 0.0361333 -0.0400456 0.0709739 0.0328323 -0.0504306 -0.123485 -0.0723229 -0.0460305 -0.00594569 -0.0361083 -0.0747211 -0.0283327 -0.0113489 -0.00324992 0.0134057 0.00157946 0.0039958 0.0133394 4.46637e-05 0.0153767 0.0246477 -0.0169312 -0.0704149 -0.151906 -0.120953 -0.107019 -0.0590613 -0.00227702 0.0408108 -0.00199486 0.0532495 -0.0146233 -0.0492443 -0.0347479 0.00656003 0.0336127 0.00717592 -0.0202603 -0.0523844 -0.0412651 -0.0155615 -0.00248119 0.00128807 0.00657895 0.0153104 0.00475203 0.00698685 0.00514421 0.0114546 -0.0074444 -0.0431521 -0.0625353 -0.104319 -0.11144 -0.0656935 -0.0794462 -0.0654368 -0.0752384 -0.0274381 -0.00084451 0.0196442 0.00579314 0.0010041 0.0856081 -0.0144121 -0.0338665 -0.0593783 -0.0486116 -0.0170124 0.00250627 0.00935395 0.00526316 0.0157895 0.00973684 0.00651661 0.00941082 0.0276141 0.0184521 0.0194648 0.011664 -0.0635514 -0.0332806 -0.110445 -0.151264 -0.133897 -0.0457148 0.0503184 0.0227803 0.00676391 -0.016252 -0.019758 0.00965017 -0.0490664 -0.0419752 -0.05691 -0.0493968 -0.00792853 0.0116718 0.0194372 0.015 0.00631579 0.0152632 0.0175932 0.0181464 0.020337 0.0265687 0.0530758 0.0379763 0.0099651 0.0356278 0.00567993 0.0448013 -0.0228431 0.0103501 0.0666628 -0.0349571 0.00364548 -0.0227283 -0.0647472 -0.0617537 -0.059383 -0.0452633 -0.0323883 -0.0110053 0.00151334 -0.0011892 0.00714513 0.00631579 0.0152632 0.00210526 0.0142832 0.0144183 0.00346941 0.0017092 0.0270968 0.0259364 0.0194609 0.0524998 -0.00570446 0.0100193 -0.0193849 -0.022933 -0.024705 0.0144893 0.0105132 -0.0431686 -0.0450769 -0.0579755 -0.066763 -0.0246652 0.00947068 0.0151367 0.0154234 0.0165465 0.00601376 0 0.0173684 0.00236842 0.00736842 0.00250786 0.00443858 -0.00492579 -0.00166308 0.00886388 -0.00384044 -0.00973142 -0.0347216 -0.0625607 -0.0926278 -0.0687598 -0.0970426 -0.040593 -0.0385246 -0.0343353 -0.0231178 -0.0242809 -0.0265651 -0.0121428 -0.000229464 0.0140933 0.0170578 0.0123684 0.00868421 0.00184211 0.0171053 0.00710526 0.00157895 0.00315789 0.00631579 0.00763384 0.00165896 0.00779381 0.00263291 0.0115149 0.0179492 -0.00185884 0.000843341 0.0185987 0.000791269 -0.0033975 0.00704012 0.00926914 0.00323762 0.00685807 0.0101059 0.00233394 0.00359672 0.0081607 0.0131579 0.00315789 0.0115789 0.0163158 0 0.0118421 0.0176316 0.00815789 0.00710526 0.0168421 0.00421053 0.0171053 0.0139474 0.00697659 0.0165789 0.00578947 0.00562757 0.011006 0.0034154 0.0010524 0.00789474 0.0173684 0.00105263 0.000263158 0.00842105 0.00131579 0.0144737 0.00578947 0.015 0.00815789 0.0152632 0.00868421 0.0173684 0.00289474 0.00184211 0.0142105 0.0105263 0.00841642 0.000847703 0.0085154 0.0103144 0.00667597 0.00464799 0.00994066 0.000306186 0.0044635 0.0140188 0.00581845 0.00581005 -0.0167117 -0.0139658 0.0107312 0.00938619 0.0164679 0.00213766 0.00934089 0.0134211 0.00789474 0.00842105 0.00684211 0.00421053 0.00868421 0.0102632 0.00258908 0.0129595 0.0112135 0.00987515 0.0128446 0.0111735 -0.000712894 0.00145836 0.0065092 0.00553437 0.00238683 -0.0357865 -0.0221395 -0.0175047 -0.0132926 -0.0119566 0.0293789 0.011841 0.0158039 0.0110942 0.00272953 0.00823056 0.0154371 0.00342105 0.000789474 0.0121053 0.00657895 0.00400351 0.0103522 0.0115207 0.0109792 0.0168177 0.0013871 0.0018983 -0.0106673 -0.0197586 -0.0267849 -0.0298291 -0.0680657 -0.0858214 -0.108757 -0.0909455 -0.0582889 -0.0246617 0.00537973 0.028847 0.0405367 0.0211138 -0.018705 -0.0192591 0.00974229 0.0152402 0.00947368 0.0155263 0.00605263 0.0162151 0.0115255 0.00352914 0.00602358 0.00331445 0.000386506 -0.0215714 -0.0287039 -0.00687648 -0.0266232 -0.0466235 -0.0922487 -0.127498 -0.130452 -0.0805848 -0.0463506 0.0284689 0.00233967 -0.0239548 -0.0247892 0.0127932 -0.00687634 -0.023104 -0.0236695 -0.00276333 0.00576454 0.0139474 0.00526316 0.00279863 0.00127755 0.00636984 0.00580148 0.00419254 0.00315564 -0.00180125 0.0119406 -0.0025662 -0.0159205 -0.066482 -0.085264 -0.0429914 0.00148021 0.0259937 0.0366687 0.0945497 0.0231763 -0.00372523 0.0665662 0.0962225 0.0408873 -0.0245292 0.0131275 0.00705822 0.00141331 0.0102632 0.0160271 0.0176777 -0.00736731 -0.0146165 -0.00120969 0.0297107 0.0166731 0.0126066 -0.039853 -0.0476862 -0.0389633 -0.102389 -0.0551954 -0.0202476 -0.0255352 0.0113785 -0.041325 -0.0254834 0.0385622 0.102376 0.0621099 0.0624659 0.0166999 0.0339611 0.0531273 0.0178305 0.00225011 0.00605096 0.00599138 0.00493553 0.00521612 -0.024576 0.00918958 0.0156355 0.00196348 -0.0239464 -0.0997441 -0.0718263 -0.070339 0.0211419 -0.0509443 -0.0687458 -0.133722 -0.0270567 0.0224013 0.0598136 0.0398515 0.130555 0.0437486 -0.0499401 -0.00928317 0.0480556 0.0584087 0.0348805 0.00740345 0.00665288 -0.000155407 0.0101285 0.00801156 -0.0259416 -0.0018525 -0.00481413 -0.0596067 -0.0660093 -0.0633966 -0.0982627 -0.0281384 0.0265489 -0.101514 -0.181961 -0.0859838 -0.0449684 0.0672834 0.0930399 0.173202 0.0652619 -0.00492 -0.0111935 0.0377288 0.0855986 0.0521317 0.041033 0.0103523 0.0163319 0.00230749 0.00295161 0.0045354 -0.0186452 0.0308502 0.0043835 -0.0791562 -0.153093 -0.143481 -0.132958 -0.0646623 -0.087176 -0.133023 -0.130045 -0.121581 -0.127043 -0.0604272 0.0488556 0.0581543 -0.0892951 -0.0635262 -0.0486758 -8.4525e-05 0.0789682 0.0245426 0.0247053 0.00753898 0.00162063 0.0100355 0.00440827 -0.00620629 -2.90572e-05 0.0237942 0.0148065 -0.0886427 -0.158397 -0.0848795 -0.0848344 -0.0548223 -0.0151907 -0.0883887 -0.112991 -0.090682 -0.132706 -0.062538 -0.0414324 -0.0755194 -0.164613 -0.135645 -0.0864636 0.00197097 0.0259528 0.0177427 0.0141287 0.0172742 0.0013634 0.00834919 -0.0025613 -0.00910836 -0.0134423 0.0346454 0.0545178 -0.0817191 -0.172153 -0.121559 -0.0613289 0.0082804 -0.0682845 -0.120562 -0.133526 -0.0401086 -0.0715344 -0.036636 0.0330778 -0.111255 -0.154144 -0.153136 -0.110045 -0.0323918 -0.0376162 0.00600584 0.00488398 0.00702504 0.00763158 0.0135944 0.00780589 -0.00116201 -0.000620915 0.0649655 0.0569556 -0.0146964 -0.18803 -0.116171 0.108739 0.0394184 -0.0017006 -0.0338323 -0.0643476 -0.0804463 -0.115442 -0.0145 -0.000903126 -0.105499 -0.1108 -0.135438 -0.0758056 -0.0624244 -0.0343269 -0.000667609 0.0169616 0.0131619 0.00657895 0.0106799 0.00425401 0.00846708 0.00369311 0.0612761 0.0918291 -0.0532846 -0.226497 -0.00511972 0.161889 -0.0491694 -0.0173368 -0.0052442 0.0278682 -0.0961375 -0.127955 -0.0360729 -0.0216297 -0.1218 -0.116823 -0.0863955 -0.0564682 -0.0202248 -0.00942492 -0.00762225 0.00804288 0.0151207 0.00657895 0.00310663 0.0112629 0.0130052 0.0532674 0.0604278 0.0316225 -0.00364753 -0.106838 0.00642539 -0.0276755 -0.159509 -0.172995 -0.152428 -0.13919 -0.103262 -0.0889112 -0.103725 -0.0804717 -0.155819 -0.118455 -0.0768574 -0.019495 -0.0243034 -0.0262554 -0.0393107 -0.0152595 0.00656021 0.00631813 0.000586989 0.0154658 0.00753773 0.0394453 0.0378459 -0.0105516 -0.0423195 -0.0263006 -0.0055787 -0.125992 -0.192591 -0.151769 -0.254155 -0.224151 -0.159244 -0.0386613 -0.0724788 -0.0871631 -0.178761 -0.0859112 -0.0484483 -0.0207384 -0.0369691 -0.0458787 -0.046856 -0.00779159 0.00712001 0.0092239 0.0159184 0.00287598 0.00850198 0.00870854 0.0375907 -0.0393018 0.0255068 0.203554 0.156379 0.000380404 -0.0356024 -0.00112479 -0.0449768 0.0325555 0.0582584 0.000863679 -0.089205 -0.0658017 -0.0954105 0.0265504 0.0129741 -0.0190679 -0.0249989 -0.0233138 -0.0253288 -0.0143155 0.015546 0.0126316 0.0168931 0.0188195 0.00315286 0.00704819 0.0287498 0.0821696 0.0640904 0.186202 0.258343 0.279408 0.151348 0.114892 0.145794 0.115302 0.0493247 -0.0234605 0.0522987 0.11541 -0.0110299 0.0744728 0.0396789 -0.00808735 -0.0239197 -0.0170882 -0.0104645 -0.0187292 0.0100094 0.0171001 0.013421 0.0166962 0.0120736 0.0416672 0.0078664 0.062254 0.0381131 0.0310098 0.0792628 0.083488 -0.0136005 -0.047545 -0.111215 -0.0849537 -0.008841 -0.025101 0.000284471 -0.0442653 0.00798774 0.0815161 0.0439477 -0.0470227 -0.0152087 0.0182992 0.00630153 0.00147336 0.0148099 0.000789474 0.00497294 0.0111528 0.0186138 0.0463672 0.0440536 0.0478701 0.00694277 -0.053645 -0.143131 -0.208619 -0.116195 -0.146662 -0.15801 -0.1502 -0.0339137 -0.0412604 -0.0652668 -0.0800041 -0.101763 0.0606897 0.0603663 -0.0325015 0.00418622 0.0166801 0.00685165 1.04994e-05 0.0117511 0.00605263 0.00737992 0.0132503 0.00102674 0.00127067 0.0212141 -0.046056 -0.0754018 -0.0763253 -0.107174 -0.201431 -0.137359 -0.107229 -0.11892 -0.142952 -0.0762297 0.0515342 0.0586032 -0.0691325 -0.10506 0.0282986 0.0467145 0.0178613 0.00802259 0.0197631 0.00795151 0.0082316 0.00894787 0.00712484 0.00756154 -0.000533774 0.00756616 0.0229526 -0.00751536 -0.0785197 -0.114444 -0.109862 -0.114272 -0.0898513 -0.0394434 -0.074057 -0.118167 -0.0791949 -0.0367599 0.107873 -0.000778426 -0.106363 -0.0991628 0.0426767 0.0878314 0.0430638 0.0308795 0.0165269 0.00177976 0.00251682 0.00710526 0.000808584 0.0113219 0.00709274 0.00663913 0.020836 -0.015841 -0.0795219 -0.116773 -0.0805222 -0.083824 -0.0201305 -0.0621271 -0.0913376 -0.0412333 0.0117248 -0.0139596 0.059414 0.00640684 -0.108517 -0.0150946 0.0627944 0.0637097 -0.017577 -0.0085549 0.0124513 0.0116173 0.00231975 0.0115789 0.015 0.0139474 0.00940119 0.0127406 0.0201164 0.0187017 -0.0124695 -0.0435832 -0.0420959 -0.0494072 0.000646017 -0.0623959 0.0110072 0.0448301 0.0606747 0.0247296 0.033408 -0.0396305 -0.0715852 0.0516598 0.0669642 0.0355398 -0.0516775 -0.0200545 -0.00506792 0.0178648 0.0158771 0.0144737 0.00710526 0.0107895 0.0023649 0.00267454 0.00716655 0.0145128 -0.000643344 -0.00898574 -0.0458216 -0.102377 -0.20518 -0.189475 -0.0549185 0.0878766 0.0579472 -0.0384343 -0.029144 -0.00670869 0.0393313 0.0817333 0.070012 -0.00911896 -0.0394857 0.00144335 0.00525049 -0.00075932 0.00798579 0.0136842 0.00210526 0.00631579 0.0103004 0.00975172 0.015767 -0.00341438 -0.000656085 0.00187165 -0.022326 -0.0548784 -0.126764 -0.10303 -0.0189452 -0.013816 -0.0819214 -0.0716145 0.0110959 0.0691419 0.101472 0.0465644 -0.00194186 -0.029565 -0.0111012 0.00310015 0.00405181 0.00507387 0.00608931 0 0.00342105 0.0121053 0.0131579 0.00896829 0.0173405 0.00318631 0.0112333 -0.00104868 -0.0081257 -0.0295748 -0.0206605 -0.0108618 -0.00562778 -0.0261884 -0.0310721 0.0140682 0.0233892 0.0303453 -0.0077672 -0.00618283 0.00018133 -0.00547911 0.00710021 0.00477554 0.0108159 0 0.00315789 0.01 0.0107895 0.0134211 0.00447368 0.00263158 0.0165789 0.00842206 0.0151101 0.0143023 0.00575904 0.00682821 -0.00136556 0.00254697 0.00118072 0.0118332 0.0115573 0.00302073 0.0151833 0.00769718 0.00667057 0.013283 -0.000195426 0.00896717 0.00248461 0.00516252 0.00315789 0.005 0.0115789 0.015 0.00289474 0.005 0.0128947 0.00263158 0.0110526 0.0157895 0.00447368 0.0118421 0.00815789 0.00903468 0.00815789 0.00789474 0.00393944 0.00116962 0.0164356 0.0147309 0.0152632 0.0157895 0.00342105 0.00684211 0.0121053 0.00526316 0.0134211 0.00578947 0.0102632 0.0121053 0.000526316 0.000526316 0.0152632 0.00657895 0.00315789 0.0160526 0 0.0123578 0.014901 0.00454469 0.000295724 0.0149018 0.0168349 0.00641035 0.0180157 0.0131218 0.0177002 0.00113105 0.00929579 0.00635387 0.0148485 0.00903925 0.00691063 0.0147084 0.0122274 0.0119948 0.0121053 0.0131579 0.00184211 0.0107895 0.0176316 0.00842105 0.00105263 0.00235068 0.00500418 0.0148288 0.0149784 0.00495093 0.000298033 -0.000598413 -0.00528174 -0.00148345 -0.00554424 0.00277944 -0.00539885 0.000128555 0.00808108 -0.00297086 0.010662 0.0039492 0.0141979 0.00315858 0.0109949 0.0149232 0.010493 0.0117997 0.0121053 0.00789474 0.00368421 0.00789474 0.0166758 0.00453843 0.00554701 0.00818551 0.00669148 0.00656585 0.00296263 -0.017686 -0.0146163 -0.0288161 -0.0381528 -0.0385428 -0.0204566 -0.0253501 -0.0363775 -0.017114 -0.00964989 0.00430134 0.017341 0.0160033 -0.00127351 0.00622818 -0.00208586 0.00156977 0.0135337 0.00105263 0.00552632 0.00131579 0.0163462 0.0103301 0.0134034 0.000788959 0.0065288 0.00344048 -0.0145915 -0.0443619 -0.0491788 -0.0476076 -0.0314661 -0.016597 -0.0391607 -0.0174397 -0.0264219 -0.00266843 -0.00499573 -0.00482324 0.0110953 0.021566 0.0121459 0.0194315 0.0264279 0.0239615 0.0157896 0.0173499 0.00473684 0.0131579 0.00331193 -0.000185944 0.00471104 -0.00983808 0.000219349 -0.00861835 -0.020273 -0.0193445 -0.016606 -4.36124e-05 0.000339329 -0.0375047 -0.0262549 -0.0161242 -0.0219296 0.0117688 -0.0158326 -0.0213655 -0.0323208 -0.0196293 -0.00972496 -0.00662225 0.0206552 0.0122853 0.0139428 0.00767968 0.0142105 0.00496667 0.0146576 0.00326894 -0.00383869 -0.0117348 -0.00652077 0.00907878 -0.00290414 -0.0288311 -0.00727938 0.0651117 0.026964 -0.000308979 0.0132576 0.0159672 0.0282725 0.0484947 0.0301271 -0.00173238 -0.0105182 0.00495274 0.018748 0.0107772 0.0198462 0.0105352 0.00295073 0.0150166 0.00395571 0.0162961 0.0140606 0.00443346 -0.0254661 -0.0161556 -0.0190893 -0.0430678 -0.0447282 -0.0306749 -0.0213796 0.0235849 -0.0334633 -0.0594394 -0.048134 -0.00899369 -0.0028924 0.0142877 0.0156673 -0.0114506 -0.0290775 -0.00771541 -0.0103623 0.0155843 0.0354724 0.0218248 0.016598 -0.000826598 0.0157863 0.0153613 0.0177421 -0.00316775 -0.0269295 -0.0124568 -0.0394346 -0.0715109 -0.0270319 0.00715022 -0.0421663 0.0100145 -0.0164906 -0.0724509 -0.0423939 -0.0224038 -0.0313306 -0.0337627 6.0816e-05 -0.0281928 -0.0515401 -0.0432237 -0.0299786 0.0287903 0.0535235 0.0392757 0.00849531 0.00979957 2.56837e-05 0.00512263 0.000265112 0.00607422 -0.0206919 -0.0375197 -0.0569137 -0.0558814 -0.0343366 -0.000155989 -0.0148384 0.0241548 0.0151084 -0.0313466 -0.0449697 -0.0202109 -0.00616991 -0.0084099 0.00599065 -0.0219259 -0.053369 -0.0629111 -0.0291282 0.0274083 0.06836 0.023097 0.00741044 0.014563 0.0103118 0.0103201 0.0171583 0.0046949 -0.0116423 -0.0371376 -0.0461443 -0.0375223 0.0227962 0.04155 0.00187279 0.0241351 0.0338101 -0.0710588 -0.0769653 -0.0102299 0.0179046 -0.010585 -0.0376447 -0.0767453 -0.0592246 -0.0564719 -0.0216968 0.0140165 0.0451666 0.0297744 0.00560332 0.0123159 0.0176743 0.0117608 0.00743854 -0.00343327 -0.018681 -0.0105218 -0.0263755 0.001063 0.0236076 -0.0201681 0.0162777 0.0138126 0.00985566 -0.0887702 -0.063606 -0.00354241 0.0523472 0.0243412 -0.00266437 -0.0341072 -0.0580608 -0.0513961 -0.0382662 0.00378178 0.0201551 0.0127328 0.0160125 0.00247121 0.0152632 0.00126871 0.0131294 0.0109447 -0.0270877 0.00518568 0.00659975 0.0129152 -0.000136627 -0.0674653 0.0357645 0.0470355 0.051458 -0.0219694 -0.0453418 0.0255454 0.047345 0.012328 0.0021351 -0.00294029 -0.0238783 -0.0260028 -0.0257553 -0.00620188 -0.0120138 0.00017102 0.00994249 0.0125806 0.0107895 0.0062664 0.00974443 0.0135671 0.00238718 0.0248929 0.0280034 0.0415507 -0.00954055 -0.000219588 0.0712936 0.0749459 0.0796391 -0.015352 -0.0288937 0.0189841 0.025193 0.00555212 0.0270973 0.0406696 0.0350457 0.00810092 0.00653981 -0.00420344 -0.0109235 -0.00525819 0.00948297 0.0137492 0.0126316 0.0145027 0.00562089 0.0125117 0.0162544 0.028188 0.0278648 0.0128532 -0.0177447 -0.0140812 0.0268321 0.0181281 0.0139531 -0.0462221 -0.0216695 -0.0102538 0.0125032 0.00555754 0.00816518 0.0140376 0.0210505 0.0264272 0.00240465 -0.00388423 -0.0132772 0.00260978 0.00141861 0.00366634 0.0107914 0.00228594 0.010712 0.00608772 0.0137141 -0.00139421 0.00689278 -0.00540725 -0.0483009 -0.0191563 0.00343194 0.0113947 0.018525 -0.0801817 -0.118567 -0.0494015 -0.00163892 -0.0129349 0.0226448 -0.0147583 0.0299697 0.0199462 0.00369444 -0.00102797 -0.0150709 -0.00134649 0.00493963 0.00123544 0.013432 0.00571253 0.00917047 0.0111083 0.0102926 -0.0118873 -0.00450345 0.00926255 -0.0139288 -0.0684664 -0.0519189 -0.0319039 -0.00624851 -0.067289 -0.0366671 0.0329874 0.0196229 -0.0145291 -0.000949535 -0.00541797 0.02307 -0.00780173 -0.0296151 -0.0146574 -0.0350481 -0.0383759 -0.00644481 0.0082237 0.005 0.0163862 0.0149764 0.0137193 0.0185495 -0.0022035 0.00242763 0.00804392 -0.0391268 -0.0386295 -0.0518015 -0.05582 -0.0602239 -0.0965121 -0.0676049 -0.0123217 0.00748144 -0.0271215 0.00874349 -0.0332486 -0.00692858 0.00658798 -0.0322862 -0.0158817 -0.0150378 -0.0307492 0.00909572 0.0146855 0.00951622 0.00078943 0.00671244 0.0057145 -0.00396733 -0.0130267 0.0182629 -0.00816851 -0.0230789 -0.0410535 -0.043858 -0.0275748 -0.0790204 -0.091718 -0.0510567 -0.0228258 0.00898053 -0.0347662 -0.0224039 -0.0366291 -0.036698 -0.0451406 -0.0477326 -0.0501761 -0.0328503 -0.0180925 0.0147272 0.0155145 0.0165789 0.00279809 0.0141588 0.00526935 -0.017341 -0.012065 -0.00775566 -0.0383499 -0.0198617 -0.0467492 -0.0602966 -0.0447917 -0.0460337 -0.0888188 -0.0519114 -0.0111418 -0.0271238 -0.0386069 -0.0220807 -0.037976 -0.0725935 -0.079537 -0.0681432 -0.059835 -0.0205101 0.00127044 0.0110082 0.0080452 0.0121053 0.00491147 0.0136825 -0.00995089 -0.0303778 -0.0200596 -0.0532925 -0.0965717 -0.0569857 -0.0584907 -0.0702216 -0.0421664 -0.0287439 -0.10013 -0.09927 -0.0890664 -0.0496205 -0.0286302 -0.0302543 -0.0501661 -0.106486 -0.0997616 -0.050184 -0.0437236 -0.00781229 -0.00180423 0.00465566 0.00157917 0.0131566 0.00382001 0.00201238 -0.0140348 -0.0181609 -0.0145707 -0.0232482 -0.0479529 -0.0303434 -0.0310823 -0.0287652 -0.0148573 -0.0336524 -0.100011 -0.1267 -0.0544432 -0.0392873 -0.0650383 -0.0323494 -0.0689325 -0.0748917 -0.0563207 -0.0299962 -0.0227375 -0.00495997 0.00134277 0.00997882 0.0115789 0.0110514 0.00157854 0.00265836 -0.00104606 -0.00910152 -0.0328032 -0.0247155 -0.0390649 -0.00875271 0.00157156 0.0330637 -0.0042265 -0.0140005 -0.0652022 -0.0408674 -0.0516982 -0.00443502 -0.0232893 -0.0341271 -0.0509568 -0.0779495 -0.0461826 -0.0055483 -0.00765857 -0.00670057 0.00364197 0.0039005 0.00473684 0.0163158 0.0121053 0.00953483 0.00763435 0.00637468 -0.00228345 -0.00556033 -0.00742425 -0.010892 0.0279497 0.0499886 0.0279075 0.0207567 -0.00147951 0.0200888 -0.0118327 0.0122813 -0.0199607 -0.0358544 -0.0336597 -0.036797 -0.0165981 0.00766414 0.00523894 0.0136101 0.00142859 0.0166253 0.00631579 0.00289474 0.00184211 0.00706305 0.00377241 0.0123761 0.0159052 0.00914591 0.00302459 0.00775918 0.00744485 0.0152459 0.00630475 0.00540553 0.00898353 -0.0359781 -0.0335493 -0.0041897 -0.0154723 -0.0114936 -0.000454308 0.036895 0.0222293 0.0211444 0.00810811 0.00184083 0.00525994 0.00694847 0.00526316 0.0139474 0.015 0.0150186 0.0111492 0.00253245 0.0111657 0.0127701 0.00253823 -0.00104933 -0.0158232 -0.0294569 -0.0120948 -0.020845 -0.0307687 -0.0103762 0.00650258 -0.00317141 -0.0172707 -0.000636013 -0.00724915 0.0155794 0.00411126 0.0193117 0.0150214 0.00671856 0.00939779 0.0053321 0.00263158 0.00368421 0.000263158 0.00973684 0.00744452 0.00931743 0.00730525 0.00291222 0.00495003 0.002105 -0.00620571 -0.017379 0.0237486 0.0185673 0.0234626 0.0140683 0.0241298 -0.00513279 -0.0286682 -0.0182562 -0.0017836 0.0118089 0.0133353 0.0147099 0.00523001 0.0176671 0.0110526 0.0163158 0.00289474 0.00947368 0.0134211 0.00105263 0.00184211 0.00236842 0.0144746 0.00893388 0.00908875 0.00576726 0.0132494 0.010697 -0.000869676 0.0123969 0.00502406 0.0157286 0.00546543 0.00997534 0.0161875 0.0138215 0.0153995 0.00097218 0.000137861 0.0155313 0.0154062 0.00289474 0.00263158 0.0142105 0.00552632 0.00552632 0.0126316 0.01 0.00605263 0.00894737 0.00447368 0.00842105 0.00473684 0.000789474 0.00722791 0.00394737 0.0126316 0.0163788 0.0178446 0.00999839 0.0028837 0.00657895 0.00684211 0.0126316 0.00842105 0.0163158 0.0131579 0.0173684 0.00631579 0.0121053 0.0105263 0.00947368 0.0102632 0.0171053 0.015 0.00131579 0.00210526 0.00710526 0.0131601 0.0120452 0.0144729 0.0126611 0.000247738 0.0142563 0.00439453 0.0069339 0.00818714 0.0167944 0.0144911 0.00038199 0.0088022 0.00873668 0.00672059 0.0135881 0.0183971 0.00428355 0.00115304 0.00947368 0.0144737 0.0105263 0.0107895 0.00131579 0.00947368 0.00210526 0.0163213 0.00381533 0.0137051 0.012506 0.0158791 0.00546764 -0.000523787 0.0085918 -0.00314531 -0.00375892 0.0161246 0.0179432 0.0269955 0.0222066 0.0103124 0.0104801 0.0306481 0.0224092 0.0226623 0.0187404 0.00904788 0.0015137 0.00458156 0.00947368 0.00684211 0.00815789 0.0173684 0.00178518 0.0105866 0.00935294 0.0102634 0.00725938 0.00417448 0.00430018 -0.0230323 -0.0245103 -0.0294626 -0.0343419 -0.0206221 -0.00372115 0.00390332 -0.00244612 0.0307022 0.047676 0.0753656 0.0676385 0.0436079 0.0243033 0.0260809 0.00543107 0.0110716 0.0135235 0.0139474 0.00289474 0.00342105 0.00623349 0.00209159 0.00332134 0.0116308 0.00503343 -0.012564 -0.0208744 -0.0404272 -0.0336746 -0.0637097 -0.0535399 -0.0448774 -0.0346788 -0.0272189 0.00164896 0.0184434 0.029315 0.0897727 0.0872163 0.10365 0.0776273 0.0731884 0.0284716 0.0116356 0.0183539 0.00881478 0.0115789 0.00315789 0.0156195 0.00849261 0.0027637 -0.0105787 -0.0149143 -0.0350273 -0.0417964 -0.0495442 -0.0725372 -0.0847937 -0.0897998 -0.102442 -0.0875857 -0.0573658 -0.0503755 0.0354123 0.0302322 0.0530328 -0.0116133 0.0307146 0.0243409 0.0449951 0.0135111 0.00299327 0.0050012 0.014731 0 0.0107607 0.00636987 0.00110019 -0.0024087 -0.0105765 -0.0211073 -0.0491385 -0.0643068 -0.0950557 -0.109847 -0.109376 -0.0858876 -0.0701933 -0.0766884 -0.0402814 -0.00579996 0.128408 0.0478367 -0.00295367 -0.0392455 -0.0582684 -0.0671471 -0.00706649 -0.0207938 0.00250253 -0.00142468 0.000541054 0.00211427 0.00607504 0.0156597 -0.0323628 -0.058435 -0.0638032 -0.0589452 -0.0421656 -0.0486196 -0.0562403 -0.0642291 -0.117381 -0.170844 -0.0869903 -0.0696889 -0.00749994 0.0695961 0.0666145 0.0276397 -0.0345331 -0.111044 -0.0824928 -0.0837898 -0.0165095 -0.0217963 0.000608468 0.002042 0.00239599 0.00162467 0.00542685 0.0169592 -0.0243173 -0.0541388 -0.0237669 0.00168213 0.00831765 -0.022012 -0.0228875 -0.0265488 -0.0683024 -0.0550324 -0.0524354 -0.00482452 0.0502154 0.048393 -0.014885 -0.0314913 -0.0384711 -0.0568294 -0.0430605 -0.0792084 0.00888227 0.0326906 0.00865334 0.0150312 0.00346436 0.00796089 0.0111333 0.015852 0.00902591 -0.0125281 -0.0266633 0.00567732 0.00633168 -0.00541617 -0.0450286 -0.0573246 -0.0249386 -0.0822298 -0.0458969 0.0435605 0.0280522 0.0164337 -0.00910212 -0.0511111 -0.0164491 -0.00438684 0.023892 0.00652668 0.0375301 0.0297375 -0.0108265 -0.00523672 -0.0162145 0.00698697 0.00409212 0.00939278 -0.000595767 -0.0149725 -0.0106504 7.03021e-05 0.0146356 -0.0213156 -0.0322295 0.0252811 -0.0679802 -0.066852 -0.0141842 0.120919 0.0766898 -0.0297184 -0.0810542 -0.105196 -0.0944139 -0.0451655 -0.00935707 0.0203668 0.0457697 -0.00938095 -0.0552269 -0.00501352 0.00474964 0.000356227 0.00608746 0.00664692 -0.00999305 0.000316089 0.0281626 0.00547478 0.0317012 -0.0135621 -0.0399993 0.0455927 -0.0629279 -0.0383835 0.0807667 0.11295 0.117326 0.0694868 -0.0298791 -0.0851066 -0.0914863 -0.0616718 -0.0547792 -0.0290228 0.0228147 0.032341 -0.0394898 0.0092769 0.0104202 0.0139474 0.014606 0.0144429 0.000577929 0.00633686 0.0535726 0.0671754 0.0575553 -0.00977239 -0.0602922 -0.081433 -0.041089 -0.012404 0.0293188 0.0579699 0.075622 0.0389519 -0.027818 -0.0593223 -0.0556357 0.00980586 0.0742197 0.0745161 0.0748823 0.0483637 -0.0206222 0.0143555 0.0119779 0.00526316 0.0130976 0.0101123 0.00396591 0.0176092 0.0530874 0.070431 0.0574136 -0.0132933 -0.0827112 -0.0941052 -0.0600091 -0.082438 -0.0402837 0.00479649 -0.0282678 -0.097019 -0.161557 -0.0719677 0.0190909 0.051742 0.0855686 0.118351 0.0835098 0.0240863 -0.0040584 0.0109649 0.00718498 0.00947368 0.00176872 0.0123402 0.020653 0.0251637 0.0381268 0.0236345 0.0124743 0.0103399 -0.0240827 -0.0297125 -0.0210526 -0.000538867 0.0120853 0.0559384 -0.0672178 -0.173154 -0.067316 -0.0500397 0.0452299 0.0531121 0.0984358 0.0973926 0.0842656 -0.00103017 -0.0116846 -0.000186842 0.00154353 0.0136875 0.0162745 0.0103284 0.0177583 0.0174737 0.0176227 0.0292046 0.0335402 0.0485446 -0.00633866 -0.0692993 -0.0679509 0.0461501 0.0317311 -0.0520033 -0.169905 -0.117824 -0.0266521 -0.0143546 0.0182379 0.0364501 0.0521068 0.0720786 0.0150928 -0.044254 -0.0153855 -0.0038899 0.00498011 0.0144925 0.000350012 0.00709479 0.00463922 -0.0092154 0.0276708 0.0328153 0.0535428 0.0280997 -0.0678692 -0.118038 -0.0851545 0.0738741 0.0265545 -0.130155 -0.162216 -0.0797696 -0.054646 -0.0371257 -0.0554165 -0.0382835 -0.0374558 -0.0106627 -0.0131029 -0.0406222 -0.0362915 0.00193628 0.00229511 0.0171053 0.000297782 0.00404904 -0.00572695 -0.00592507 0.0343414 0.0652632 0.0169198 0.0160952 -0.0275508 -0.0553514 0.0441016 0.0367875 -0.00603831 -0.208331 -0.203781 -0.0347351 -0.0502143 -0.0495476 -0.0294459 -0.0445053 -0.0640614 -0.0287899 -0.0200065 -0.0236278 -0.0416117 0.00533601 0.0122824 0.0131893 0.00736842 0.00128291 -0.0184802 -0.0473094 0.0054344 0.0329104 -0.00833027 0.00248792 -0.00782288 -0.0257193 0.0739578 0.0746717 -0.0277002 -0.206933 -0.163911 -0.10059 -0.0574263 -0.0645846 -0.0720653 -0.0548154 -0.0873001 -0.080157 -0.0483517 -0.0455066 -0.0211545 0.0011387 0.000399525 0.00973684 0.00281969 0.0120364 -0.0265098 -0.0618255 -0.0148631 0.027972 -0.0284251 -0.03667 -0.0199715 -0.0515156 0.0456438 0.0179696 -0.0605371 -0.139667 -0.0762535 -0.109274 -0.0903197 -0.099977 -0.0425153 -0.0620812 -0.085383 -0.0750223 -0.0514067 -0.0205452 0.00237796 -0.00453295 0.016675 0.0107895 0.0167541 0.000106424 -0.0364763 -0.0780595 -0.0528423 -0.0160925 -0.0092695 -0.0471138 -0.101941 -0.0440071 0.041244 0.0910099 -0.0295939 -0.103437 -0.0517757 -0.0864762 -0.0635618 -0.0511542 -0.0131648 -0.06575 -0.0794948 -0.0668753 -0.0456053 -0.0104007 -0.0106939 0.0013491 0.00763187 0.0134468 0.00852421 0.00311081 -0.0138768 -0.0308094 -0.0782788 -0.0259938 -0.00691575 -0.0219979 -0.0587203 0.00929578 0.043895 0.0944042 -0.00569764 -0.112027 -0.0365529 -0.0814051 -0.0615128 -0.0263764 -0.0597454 -0.0428863 -0.0836589 -0.0668398 -0.0466006 -0.0112749 0.00259099 0.00453518 0.00315789 0.0158146 0.0136923 0.00884558 -0.000909952 -0.00269721 -0.0321811 -0.0603603 -0.042808 -0.0273638 -0.00290375 0.0855522 0.00523472 -0.0116725 -0.0598036 -0.0784186 -0.059107 -0.0501911 -0.0260947 -0.0266281 -0.0442132 -0.0618046 -0.0826629 -0.0456418 -0.0204766 -0.00785873 0.00282567 0.00983612 0.0139474 0.00736842 0.00763158 0.00863224 -0.00443291 0.000814834 -0.00832505 -0.0512112 -0.0718077 -0.030558 -0.0109597 0.0141448 -0.0322654 -0.0332319 -0.0662192 -0.0383767 -0.0312411 0.0449349 0.0278643 -0.0341495 -0.0256295 -0.0370503 -0.0459081 -0.0130518 0.00598103 0.00610904 0.00712224 0.00138238 0.0110526 0.0131579 0.00157895 0.0169453 0.0153142 -0.00401038 -0.0166544 -0.0245665 -0.0337162 -0.0166018 0.0134535 0.00705359 0.000613175 -0.0161418 -0.0895622 -0.091445 -0.0245295 0.0054689 -0.0457777 -0.0324576 0.0203801 0.00472124 0.00408367 -0.000960009 0.000410849 -0.0053906 0.00851799 0.00055609 0.00894737 0.00894737 0.0102632 0.016788 0.00396493 0.00570104 0.00197178 0.00138935 -0.0030224 -0.000465292 -0.0161678 -0.0454885 -0.0668232 -0.0314282 -0.0377398 -0.0238544 0.0316212 0.0181427 0.0285969 0.0178933 0.0144304 0.0132982 0.0136988 0.00840629 0.00175154 0.000278229 0.0127532 0.00757028 0.00447368 0.00105263 0.01 0.00342105 0.0160589 0.00462199 0.016827 0.00999044 0.018257 0.0170171 0.00970224 0.00403225 -0.020822 -0.0344457 0.0026697 0.018331 0.0184769 0.0262725 0.0179353 0.014579 0.006269 0.0185781 0.0175297 0.00295278 0.00904824 0.0171265 0.00552632 0.0134211 0.00394737 0.00789474 0.00315789 0.00421053 0.0115789 0.00605263 0.0131594 0.0168629 0.0126238 0.013126 0.0221885 0.0110739 0.0202873 0.0208815 0.0144756 0.00577334 0.00944995 0.0145214 0.00167457 0.0175971 0.0011788 0.00524647 0.00465539 0.00718691 0.00474267 0.0115789 0.0110526 0.000789474 0.00789474 0.00552632 0.00842105 0.00552632 0.01 0.0165789 0.00552632 0.0176316 0.0126316 0.00210526 0.00812463 0.00105263 0.00973684 0.00392577 0.00888472 0.0104539 0.0073654 0.0107895 0.0126316 0.0160526 0.0168421 0.0147368 0.0134211 0.00131579 0.00763158 0.00657895 0.00447368 0.0136842 0.00736842 0 0.00921053 0.0144737 0.0139474 0.0139474 0.00184524 0.00471593 0.018023 0.0168937 0.00417885 0.0143298 0.00949663 0.00255046 0.0109925 0.0117709 0.000558666 0.000831647 0.0179233 0.0164313 0.0082792 0.0053712 0.0118319 0.00336969 0.0180355 0.0102632 0.00263158 0.0134211 0.0107895 0.00868421 0.00105263 0.00131579 0.00765008 0.00491242 0.0169992 0.0068337 0.015734 0.0436826 0.0163962 0.0127416 0.0191053 0.000176832 0.0237081 0.0373222 0.0394644 0.01416 0.00892434 0.00215341 0.0199584 0.0117503 0.00781584 0.0132075 0.0166722 0.0118205 0.00194584 0.00947368 0.00947368 0.0126316 0.000526316 0.00617572 0.0146051 0.00364857 0.0151958 0.0111192 0.0275046 0.0319859 0.0187018 0.00740711 -0.020384 0.0133115 0.0946531 0.100431 0.0303227 -0.00580207 -0.0706377 -0.0139713 0.00205216 0.0184019 0.00816504 -0.00161157 0.00380433 0.0125027 0.0147091 0.0114597 0.00763158 0.00447368 0.00842105 0.014667 0.0170191 0.0159553 0.0267585 -0.00420185 -0.0458807 -0.0741173 0.20719 0.252665 0.25865 0.177358 0.0559863 0.0693291 0.375253 0.270851 0.0829801 0.00580428 0.101675 0.0453001 0.15792 0.162878 0.132933 0.0701353 0.0217459 0.012446 0.00405983 0.00526316 0.0155263 0.00923805 -0.00696484 -0.0673096 -0.0699498 -0.147173 -0.172149 -0.0156253 -0.0915932 0.110169 0.142066 0.152229 -0.0213336 -0.0579349 0.144648 0.097122 0.148786 0.304485 0.139265 0.135977 0.221866 0.203191 0.11858 0.0204714 0.0311279 0.0171556 0.00598698 0.005 0.0162715 0.0068124 -0.0560483 -0.103843 -0.0379771 0.00141921 0.045328 0.122993 0.0129535 0.0891647 0.092772 -0.0962553 0.176051 0.288367 0.527237 0.468001 0.0456246 0.0574141 0.160728 0.065542 0.0163584 0.136575 0.0551237 0.0173109 0.0621993 0.0431795 0.0130455 0.00291614 0.0155192 0.0126485 -0.025434 -0.081658 0.0412839 0.139486 0.219802 0.270894 0.1552 0.23678 0.0332069 -0.0508137 -0.190939 0.237085 0.359614 0.167409 -0.0675337 -0.132542 -0.0123865 0.00885671 -0.0422616 -0.0895776 -0.0486648 -0.00213024 0.0695482 0.0401527 0.002044 0.00381197 0.0154638 0.0120143 -0.00823157 -0.13913 0.0664193 0.180478 0.0998395 0.234368 0.271158 0.263876 0.100474 -0.470637 -0.903707 -0.78075 -0.419141 -0.481738 -0.552113 -0.696613 -0.369604 -0.221871 -0.28097 -0.324521 -0.116776 -0.01549 0.0323839 0.0114635 0.00942707 0.0110794 0.0159855 0.0177635 -0.0173315 -0.15645 -0.00877427 0.0134807 -0.00726515 0.0494807 0.290432 0.338964 -0.0120243 -0.659384 -0.896518 -0.891912 -0.708295 -0.753324 -0.780444 -0.718895 -0.533837 -0.388109 -0.437881 -0.409316 -0.162567 0.0131983 0.0394188 0.0103579 0.00258808 0.000819776 0.0062877 0.0201229 -0.00332755 -0.142081 -0.0490503 -0.0789271 -0.0582355 0.136899 0.468671 0.252161 -0.0489201 -0.34808 -0.543481 -0.459376 -0.332144 -0.332909 -0.455487 -0.359419 -0.433072 -0.505034 -0.50717 -0.374301 -0.160757 0.0272391 0.0469383 0.0165541 0.0030438 0.00503187 0.0117168 0.0146827 -0.0358227 -0.095539 -0.112063 0.0207768 0.0742137 0.419308 0.51265 0.354447 0.122817 -0.154461 -0.216431 -0.180216 -0.116902 -0.0311138 0.0862125 0.0674975 -0.17027 -0.391319 -0.385289 -0.252235 -0.104056 -0.0421663 0.00386034 0.00686637 0.00814793 0.00131579 0.00614497 0.0158815 -0.0187168 -0.0960888 -0.0886183 0.0528757 0.185279 0.321417 0.272467 0.324237 0.105784 -0.115905 -0.409467 -0.31943 -0.246741 -0.286466 -0.221952 0.133991 0.127743 0.00131255 -0.135772 -0.171423 -0.0631043 -0.0487878 -0.0156003 0.00139505 0.0139494 0.0168421 0.00792159 0.0150459 0.0046007 -0.044186 -0.0697632 -0.0992001 0.165791 0.15173 0.335727 0.376226 0.104267 -0.204999 -0.409537 -0.423247 -0.523524 -0.518585 -0.266709 -0.15087 0.0835422 -0.0790662 -0.063879 0.00608562 0.0398671 0.0406883 -0.0149735 -0.000593331 0.0158204 0.0131579 0.00288022 0.00796829 0.00610489 -0.0129561 -0.11671 -0.278376 0.0655135 0.0948472 0.277315 0.0501396 -0.0468041 -0.143968 -0.345221 -0.485334 -0.403637 -0.349942 -0.312748 -0.112641 0.00902412 0.0272233 -0.118085 -0.0243974 0.118696 0.0853035 -0.0215257 0.00544565 0.00738911 0.0134224 0.000387729 0.00864759 -0.000909094 -0.074144 -0.181384 -0.274252 -0.0299734 -0.0347019 -0.00436103 0.0422988 -0.161124 -0.198341 -0.388444 -0.484755 -0.446277 -0.354596 -0.258852 0.0416568 0.0497755 -0.00953716 0.0503802 -0.0972975 0.184535 0.145552 -0.0158613 0.00583981 -0.000904747 0.00763919 0.00283561 0.0133524 0.00299036 -0.0757719 -0.158208 -0.320127 -0.258369 -0.0739613 -0.0170101 0.00780794 -0.00293118 -0.0516626 -0.343295 -0.39281 -0.181119 -0.321818 -0.431127 -0.187246 0.0799449 -0.0017492 0.0837336 -0.0984574 0.208375 0.18761 -0.0344442 -0.0317793 -0.0169843 0.00578947 0.000679699 0.00792528 0.0104481 -0.0589561 -0.162664 -0.307432 -0.0531713 -0.197387 -0.135934 -0.000571003 0.078725 -0.0944845 -0.355866 -0.414753 -0.247571 -0.299838 -0.263836 -0.0563967 0.169296 0.174354 0.154789 -0.131219 0.128998 0.161539 -0.0660621 -0.0186672 0.00945772 0.01 0.00447357 0.00682878 -0.00935777 -0.0378376 -0.165511 -0.278657 -0.0666264 -0.22647 -0.238336 -0.0365434 0.00240697 -0.119409 -0.385221 -0.411376 -0.328102 -0.361779 -0.146139 -0.0653664 0.244759 0.155965 0.323321 -0.0803746 0.0253112 0.139026 -0.00422913 -0.00595393 0.00918784 0.00684211 0.0128573 0.00888965 -0.0188221 -0.0403838 -0.19111 -0.163722 -0.0141182 -0.0695 -0.327624 0.0128395 0.159046 -0.0626319 -0.376176 -0.351028 -0.319307 -0.362387 -0.0740372 0.0448166 0.168335 0.179802 0.392189 0.0193884 0.0176233 0.209054 0.0127444 0.00401604 0.0087595 0.00763158 0.00464984 0.0206461 -0.0160528 -0.0967006 -0.188417 -0.132058 -0.0367874 0.0308338 -0.00809181 0.108308 0.350944 0.170445 0.00849441 -0.243253 -0.196973 -0.0830807 0.144159 0.147076 -0.0911836 0.0779713 0.171787 0.162105 -0.0140218 0.0877616 0.0248 0.00959975 0.00289534 0.00892943 0.00199645 0.019468 0.000194125 -0.0884423 -0.158902 -0.0709095 -0.0221281 0.0668108 -0.132696 -0.0889834 0.2258 0.193139 -0.0368418 -0.169556 -0.041964 0.114678 0.190904 0.101274 0.104162 0.0940208 0.132435 -0.00464556 0.0751242 0.105422 0.0572484 0.0129702 0.00947368 0.00366671 0.0123628 0.00984049 0.00233941 -0.0524772 -0.0729683 -0.123645 -0.295722 -0.172645 -0.167922 -0.259054 -0.00612307 -0.116678 -0.0272707 -0.0391341 0.141079 0.304186 0.0203387 -0.0277339 -0.00165968 -0.103539 -0.0277555 -0.0142499 0.135375 0.0422477 0.0470967 0.0333645 0.00631579 0.00921053 0.005 0.0146762 0.01741 0.0026023 0.00205229 -0.0541633 -0.233077 -0.219786 -0.24572 -0.234485 -0.2436 0.0556601 -0.0042589 0.236943 0.116867 0.100635 0.00103154 -0.084685 -0.101619 -0.0506496 -0.0453492 0.0975938 0.118017 0.0265224 0.0546692 0.0282463 0.00473684 0.0171053 0.0123684 0.00660224 0.0116966 -0.00410066 0.0124161 -0.0245896 -0.0564695 -0.073458 -0.0828216 -0.176101 -0.3411 -0.221756 -0.0755544 0.0368483 0.0814854 0.00239441 0.0470213 0.0081551 -0.0229043 -0.0388135 0.0361876 0.0774968 0.0423086 0.013306 0.0124669 0.0152773 0.00552632 0.00315789 0.0171053 0.0152947 0.00309259 0.00321451 0.0112961 0.00407733 -0.00905919 -0.0256468 -0.0207367 -0.00851804 0.060968 0.0461482 0.0778478 0.0869571 0.0834124 -0.0207487 0.0517999 0.0152063 -0.00162397 0.0360434 0.067872 0.0841857 0.0370318 0.00849852 0.00534995 0.0150004 0.00315789 0.00368421 0.00368421 0.00315789 0.00921487 0.00670094 0.014381 0.0144772 0.0140902 0.00211093 0.00337626 0.0256033 0.0292594 0.00507456 0.0161549 0.00528283 -0.0316603 -0.0150584 0.00482247 -0.0169504 -0.0385769 0.0128558 0.0245794 0.017443 0.0014661 0.00499538 0.00289474 0.00947368 0.0163158 0.00447368 0.00815789 0.0155263 0.00684211 0.0152632 0.017369 0.00101055 0.00457819 0.0121336 0.0145775 0.00705985 0.00332549 0.00990687 0.012844 0.00437627 0.00581432 0.000278138 0.00186888 0.00573005 0.0167688 0.00143954 0.000736899 0.00385743 0.0114484 0.00368421 0.00184211 0.0102632 0.005 0.00947368 0.00447368 0.00657895 0.0163158 0.0123684 0.00763158 0.0142105 0.0142105 0.0168421 0.0178948 0.00736842 0.0134211 0.0171854 0.0132191 0.0151914 0.0107865 0.00578947 0.00921053 0.00131579 0.0131579 0.00789474 0.00236842 0.0171053 0.0160526 0.00815789 0.00789474 0.00421053 0.0131579 0.00263158 0.0115789 0.00184211 0.000263158 0.0168421 0.0113054 0.000420296 0.0144615 0.00529318 0.00678635 0.0111822 0.0135409 -0.000757506 0.00592698 0.00229332 -0.002973 0.00795807 0.0108979 0.00384873 0.0159984 0.000776302 0.00901298 0.00659853 0.00518959 0 0.0176316 0.0173684 0.0105263 0.00710526 0.00289474 0.00210526 0.00601864 0.0149122 0.00153038 0.00191468 0.0145452 0.0110563 0.0137906 0.000378634 -0.00185285 -0.0101984 -0.0172602 -0.0152894 -0.00353615 -0.0147567 -0.00773615 -0.00185488 0.000368241 -0.00459554 -0.00119605 0.00108651 0.0100698 0.00317683 0.00931754 0.0134211 0.0118421 0.0155263 0.00710526 0.00764049 0.00795675 0.0111463 0.013221 0.00444685 0.00798989 0.00273956 0.0162817 0.0095892 -0.0040017 -0.0324699 -0.0284601 -0.0362614 -0.0185067 0.0122202 0.00196813 -0.0118419 -0.00727899 -0.022302 -0.0154078 0.00320528 0.0087569 0.0013857 0.00665837 0.0145194 0 0.0126316 0.0163158 0.0143872 0.0018808 0.0112307 -0.000269783 0.00851411 0.0169897 0.000243238 0.0256774 0.0176357 0.0561614 0.0859265 0.0678434 0.0396933 -0.00622595 0.0344663 0.0352802 -0.0800397 -0.0924237 -0.0422098 -0.0238084 -0.00761679 -0.00372988 0.0292806 0.0165442 0.0045664 0.0140636 0.0102632 0.0171053 0.000390926 0.00593968 0.0119325 -0.00883741 0.00281551 -0.00298613 -0.00327293 0.0584017 0.0656338 0.085274 0.00923546 -0.0440353 0.0342782 0.0533993 0.0527492 0.00042732 -0.061725 -0.0389345 -0.0326462 -0.00291224 -0.00479243 -0.0162262 0.000328019 0.0184548 0.0112284 0.00151153 0.0142105 0.0160684 0.0131157 0.00335866 0.010855 0.00780441 -0.0100444 -0.0278183 0.038375 0.115383 0.0606579 -0.0107638 -0.0825601 -0.106804 -0.0769819 -0.0241427 -0.0193701 -0.011782 -0.0954777 -0.0372579 -0.0423285 -0.0388096 -0.0249853 0.0234638 0.000930472 0.0106004 0.00524045 0.00549036 0.0147097 0.000650734 0.00572324 -0.00690342 0.0185374 0.0298482 -0.0161436 -0.0092601 0.0880113 0.0478341 -0.0189792 -0.0363402 -0.120995 -0.14929 -0.158284 -0.0529109 -0.0932126 -0.108239 -0.0832746 -0.0353526 -0.0412458 -0.02177 0.0038648 0.0232222 0.0579475 0.030515 0.0122274 0.00613542 0.00447697 0.0119288 0.00449144 0.00178267 0.0121358 0.0148286 0.00678515 0.0236838 0.0479615 0.0283893 0.00515078 -0.0423826 -0.12031 -0.140338 -0.158036 -0.13822 -0.114287 -0.114004 0.00579029 0.0581099 -0.00985917 -0.0102496 0.0218966 0.03003 0.0689261 0.0241428 0.0185125 0.0108175 0.00731354 0.0116009 -0.000933145 -0.00932938 -0.0246042 0.00160989 0.00402818 0.00377831 0.0261974 0.0224494 -0.0412481 -0.080714 -0.11282 -0.147911 -0.217451 -0.157278 -0.0669894 0.00145529 0.0341136 0.0623184 0.0335265 0.0132673 0.0380471 0.0804232 0.0403949 0.0150195 0.0218168 0.0105887 0.0159639 -0.00113254 0.0029403 -0.0233139 -0.0230921 -0.0180927 -0.0240392 -0.0224462 0.0123937 0.0563382 0.000275527 -0.0299836 -0.0690038 -0.15823 -0.152151 -0.138148 -0.079309 -0.019658 -0.000873742 -0.00128803 -0.000164067 -0.00385622 0.0956614 0.0868576 0.0270396 0.0127693 0.0231326 0.00676852 0.0165375 0.00365727 -0.00541302 -0.0194955 -0.029789 0.00677635 -0.0124332 0.009845 -0.0192737 0.0628811 0.0635596 0.015777 -0.0028472 -0.0640896 -0.052018 -0.0610134 -0.0747264 -0.0838321 -0.0950664 0.0134676 -0.063555 -0.0179612 0.0720166 0.078505 0.051695 0.0230684 0.0158888 0.00267295 0.00263158 0.00289358 -0.00111628 -0.00697693 -0.0338801 0.017733 0.00339309 -0.0209594 -0.12374 -0.0580259 -0.0229387 0.0678875 0.0728702 0.0437217 -0.0401925 -0.133065 -0.128071 -0.0578672 -0.03104 0.0607484 -0.0326881 -0.000831025 0.0389332 0.0608846 0.0628505 0.0336947 0.0162939 0.000267422 0.00552632 0.00741348 0.00495613 -0.00014633 -0.0188819 -0.00205536 -0.00168742 -0.0861791 -0.0659834 -0.0858568 -0.115614 0.0350615 0.10263 0.0857928 -0.0374991 -0.0827048 -0.0935 -0.0469257 -0.0134796 0.0489202 -0.0102046 -0.0599108 -0.00887665 -0.0112903 0.0221535 0.0276533 0.0113367 0.0129635 0.00184211 0.0170007 0.0107307 0.0027525 -0.0262024 -0.0166602 -0.0488963 -0.139671 -0.155639 -0.0379347 -0.0588606 -0.000916111 0.0966159 0.0992989 -0.00171698 -0.0468063 -0.0124461 0.0425653 -0.0177291 -0.032019 -0.0822386 -0.111349 -0.0677862 -0.0649463 -0.0132679 0.0108648 0.0167669 0.00762745 0.0165779 0.00111363 0.00940898 0.00471377 0.00168953 -0.00377686 -0.0848095 -0.128239 -0.113829 0.0392958 -0.0149069 0.0240331 0.0591054 -0.0096778 -0.0328736 0.0518419 0.0621 -0.0262917 -0.053563 -0.0524934 -0.120002 -0.150981 -0.0672508 -0.059692 -0.019832 0.00260142 0.0124259 0.00725911 0.0076258 0.00832946 0.00756964 0.0188003 0.00208681 -0.0514817 -0.0577527 -0.0539834 -0.0902062 0.0130148 -0.0111709 0.0316347 0.0171031 -0.0449065 -0.116679 -0.0501628 0.0431852 0.0301236 -0.0382748 -0.0576453 -0.131281 -0.120787 -0.0267179 -0.0098257 -0.00972851 0.000760085 0.0142289 0.018042 0.005 0.0115463 0.0149616 0.00359665 0.00904662 -0.0387627 -0.0261834 -0.0100373 0.0108434 -0.00613471 -0.05299 0.0578019 -0.0334412 -0.0675546 -0.160021 -0.137946 -0.00725226 0.0140623 -0.0444135 -0.0789756 -0.100873 -0.0682333 0.0248955 0.0300799 -0.00145683 -0.000785735 0.0074714 0.0177267 0.00182684 0.00657906 0.00491219 0.0161574 0.0059755 -0.0234965 0.0141892 0.00639015 0.0163362 0.0281895 -0.0194983 0.0538447 0.107297 -0.077082 -0.184196 -0.105654 -0.0282759 -0.0340006 -0.068199 -0.0507461 -0.0560591 -0.0203281 0.0420651 0.0228931 -0.0027076 -0.00543538 0.00307219 0.0107372 0.0123684 0.0117563 0.00282738 0.009681 -0.00337138 -0.0313527 -0.0260535 -0.0434964 -0.0734917 -0.00513507 0.029257 0.038888 0.0523578 -0.104272 -0.161618 -0.0866101 -0.0738693 -0.0303464 -0.0351392 -0.0545665 0.0197923 0.0336502 0.0610555 0.0195307 -0.00644753 -0.00506509 0.00882729 0.00625669 0.0163158 0.0174515 0.0162785 0.015453 -0.0381098 -0.0339876 -0.0464177 -0.0428198 -0.0659265 -0.0602537 -0.00637995 -0.0367813 -0.0268771 -0.117892 -0.177945 -0.12465 -0.0815456 0.00327264 0.0103304 -0.0426847 -0.0207327 0.0512889 0.0662915 0.032372 -0.000782682 -0.00339068 0.0119671 0.00131583 0.00629875 0.0150159 0.0116758 0.0106691 -0.000627417 -0.0150529 0.0206987 -0.0161949 -0.00264733 -0.0611033 -0.0652172 -0.100496 -0.0887939 -0.0851729 -0.105786 -0.0658936 -0.0590372 0.00603658 -0.0561845 -0.102938 -0.0658591 0.0190094 0.0859213 0.0351334 0.00709233 0.00598162 0.00968171 0.00315789 0.00972022 0.0047315 0.00480645 0.00486327 0.00533974 -0.0132606 0.0186696 0.034739 0.00131135 -0.0770248 -0.0843503 -0.0557286 -0.08337 -0.0908533 -0.0577115 -0.0448921 -0.0270609 -0.00303014 -0.0187375 -0.0342852 0.0252843 0.0822036 0.0765707 0.0275114 0.00733423 0.00714153 0.00869531 0.00342105 0.00131579 0.0128947 0.000840972 0.00353548 0.0149528 0.0237868 -0.0078801 -0.00884037 0.0523815 -0.0236658 -0.0672114 -0.0436977 -0.0594388 0.00839024 -0.0588084 -0.0550252 0.0247238 0.0870732 0.149634 0.0955043 0.0787262 0.0737919 0.0411499 0.0165564 0.0110834 0.00350096 0.0111042 0.0136842 0.00947368 0.0110526 0.00770713 0.0108356 -0.00790765 -0.00620786 -0.0257291 -0.0197179 -0.00316341 0.00249862 -0.0208398 0.0241472 0.050482 0.0560257 -0.0211438 -0.0549109 0.0403088 0.0190028 0.111859 0.0628876 0.0111918 0.00897693 0.0106698 0.0212328 0.0140246 0.0146742 -0.000143493 0.00315789 0.0136842 0.0168421 0.00857288 0.0141861 -0.00497376 0.0016085 0.00591698 -0.018368 -0.0479425 -0.0482451 0.0226559 -0.000844491 -0.00502905 -0.0308303 -0.0189339 -0.0371703 -0.0430599 -0.0210786 -0.0172765 -0.0314599 -0.0127468 -0.0010656 0.00440648 0.0117147 -0.000391364 -6.60809e-05 0.0164999 0.0102632 0.0176316 0.0134211 0.00368421 0.0131344 0.0185569 0.0100581 0.016357 0.0155143 -0.00844134 -0.0192678 -0.0121827 0.00528476 -0.00161749 -0.039917 -0.0375103 -0.0440781 -0.0211174 -0.010553 -0.0258178 -0.0285946 -0.0161026 0.0111768 0.00336028 0.00981435 0.0163175 0.00552632 0.0131579 0.0121053 0.0131579 0.0168421 0.015 0.0163158 0.005 0.00842102 0.0158824 0.0151103 0.0155915 0.0148669 0.0106808 0.0112262 0.00534296 0.00580067 0.0116589 0.0128045 -0.000752098 0.0122113 0.00358385 0.00273456 0.0129041 0.000265248 0.0113335 0.0107558 0.0126316 0.000526316 0.00421053 0.00973684 0.0152632 0.0134211 0.00973684 0.00578947 0.00815789 0.00894737 0.00368421 0.0136842 0.00315789 0.0166964 0.0105263 0.00789474 0.00450806 0.00585243 0.00451536 0.00763332 0.00578947 0.0173684 0.00236842 0.00947368 0.00236842 0.00657895 0.00105263 0.00815789 0.0144737 0.00763158 0.00552632 0.00289474 0.00131579 0.0131579 0.00868421 0.00842105 0.0160526 0.000516337 0.00409871 0.000236285 0.00931922 0.0153988 0.000997859 0.0107837 0.00529792 -0.00174542 -0.00061292 0.00348563 0.0126782 0.00876649 0.00838101 0.00801816 0.0111909 0.0035828 0.0156107 0.0164373 0.0147368 0.0139474 0.00868421 0.00236842 0.00842105 0.00868421 0.00973684 0.0109846 0.00989468 0.0047809 0.000499534 0.00424989 0.00401265 0.015808 0.0120464 0.00362711 0.00135423 -0.0139936 -0.0116958 0.000385038 -0.0077274 -0.00103607 -0.00569786 -0.00206223 0.00547881 0.0101666 0.00448513 0.00674802 0.00823496 0.00661259 0.0123684 0.00342105 0.0168421 0.0128947 0.0140454 0.00421575 0.0087978 0.00607012 0.00385979 -0.00491363 0.0128354 0.0199474 0.0156639 0.012609 0.00679712 -0.0133857 -0.0345817 -0.0272202 -0.00572586 -0.010485 -0.0182802 -0.013423 -0.0282332 -0.00833237 0.0145184 -0.00122444 0.00210124 0.00262899 0.00994424 0.0115789 0.00157895 0 0.0132226 0.0057411 0.00956241 -0.00343413 -0.00404353 -0.00752204 0.000467491 0.00713694 0.0217472 0.0367002 0.0503272 0.0281355 -0.000499675 -0.0276647 0.00941879 0.00344937 -0.102027 -0.0966362 -0.0202402 0.00296212 0.00693923 0.019631 0.0273398 0.0220049 0.0109903 -0.00012998 0.00605263 0.0173684 0.00158471 0.0131877 0.00362645 -0.0128263 -0.0306921 -0.0454944 -0.0321432 0.0237947 0.0409166 0.0907088 0.0752196 0.00668401 0.0234268 0.0156265 0.0175071 -0.0194262 -0.0840888 -0.0523169 -0.0218353 0.0205599 0.0289156 0.0429134 0.0238249 0.0215538 0.00108319 0.0162645 0.0113158 0.000252179 0.0127271 0.00922515 0.00432133 -0.0107322 -0.0447413 -0.0469294 -0.0438436 0.00534064 0.00210008 0.0464171 0.0615243 0.0378172 0.0348562 -0.0141789 -0.0201184 -0.0439805 -0.0833863 -0.0320675 -0.00976297 -0.0528537 0.0253835 0.0745929 0.0412314 0.00692994 0.00721701 -0.00140448 0.000257368 0.0132388 0.001554 -0.0046231 0.00431151 -0.00818288 -0.0430993 -0.0519173 0.00507203 -0.00104193 0.00582883 0.0214678 0.0190894 -0.00696733 -0.0977882 -0.0621146 -0.0729893 -0.111256 -0.0806992 -0.0450762 -0.0565172 0.00171803 0.0464039 0.0530505 0.0544102 0.0176421 0.00792426 0.0071454 0.00682952 0.00483521 0.0096002 0.00413087 -0.00414029 -0.00568313 0.0152118 0.00033769 -0.016317 -0.00838087 0.0327747 -0.0143585 -0.0644215 -0.0531369 -0.0934407 -0.128936 -0.134222 -0.13598 -0.00757432 0.0151469 -0.0650732 -0.0520175 0.0219942 0.0370407 0.0703167 0.027255 0.00786087 0.00471413 0.00102373 0.0102183 0.00761194 -0.00269599 -0.0163945 0.0203979 0.0154548 0.00316139 -0.0137808 0.0128602 0.0149476 -0.0307234 -0.0920278 -0.0904734 -0.107462 -0.135477 -0.112047 -0.0734538 0.011856 -0.00727305 -0.0602386 -0.0683751 -0.00559876 0.033859 0.0300551 0.00788067 0.011545 0.0151384 0.0175713 0.00944583 -0.00436203 -0.00215662 -0.0121156 0.00841823 0.0253584 0.0312215 0.0242269 0.0292008 0.00799205 -0.0296609 -0.060588 -0.131684 -0.104803 -0.148909 -0.130234 -0.0891194 -0.0203574 0.00364437 -0.0885315 -0.0976878 0.0124687 0.031042 0.00978258 0.011767 0.0075562 0.00599111 0.00680404 0.00968712 0.00884996 -0.0191901 0.002761 0.0336122 0.0521463 0.0641085 0.0346993 0.00441607 -0.0239058 -0.0832709 -0.0855156 -0.0771722 -0.0373309 -0.0619335 -0.066347 -0.086228 -0.0630843 -0.037043 -0.133118 -0.0896416 0.00119462 0.023457 0.0262309 0.0221803 0.00991372 0.0182653 0.00263158 0.00141906 -0.000109122 0.00312543 -0.00665463 0.0375805 0.0436837 0.0103835 -0.0506729 -0.0606257 -0.111499 -0.109018 -0.0470619 0.0202641 -0.0306556 -0.066489 -0.0233928 -0.00329943 -0.0664958 -0.0322544 -0.0809136 -0.0558408 0.000927358 0.0222118 0.0269206 0.013881 0.0113059 0.00577249 0.00105263 0.0103136 0.0140106 0.003764 -0.0117448 0.0329398 0.0298395 -0.0677731 -0.0769377 -0.0855768 -0.0941759 0.0205048 0.0225113 0.0309963 -0.00515269 0.0635981 0.0894974 0.00910292 -0.0471478 -0.007803 -0.035267 -0.107956 -0.0193177 -0.0059528 0.0315231 0.0275188 0.0199832 0.0155624 0.0147368 -0.000353871 0.0107305 0.000549691 -0.00185422 0.0178879 -0.00938591 -0.098968 -0.132892 -0.047514 -0.0441978 0.0105029 -0.0256736 0.0173497 0.0445067 0.0364781 0.0853782 0.0342028 -0.0481454 -0.0174618 -0.0894712 -0.1455 -0.0312817 -0.0189482 0.00217904 0.0223725 0.0067825 0.0169074 0.00631479 0.00560461 -0.0016636 0.0164579 0.0112936 -0.0108899 -0.0720836 -0.103421 -0.0866886 0.0356403 -0.00629453 -0.0131115 0.00121292 0.0489252 0.0800069 0.0593509 0.0701378 0.00550401 -0.0390147 -0.0379427 -0.108158 -0.141036 -0.0408278 -0.0255494 0.00097058 0.0280886 0.00653837 0.000844167 0.00446799 0.00348612 -0.001927 0.00610986 -0.00229863 -0.0733966 -0.0471042 -0.0648019 -0.0836645 0.0228541 -0.0089295 -0.0262533 0.0328133 0.0591511 0.0174253 0.0473503 0.0349535 -0.0372464 -0.0463189 -0.061827 -0.0782241 -0.0779006 0.00498523 0.0185602 0.0214721 0.0349288 0.0116513 0.0172871 0.00447368 0.00203466 -0.00041815 0.0102829 -0.00163284 -0.0590284 -0.0343843 -0.0559036 0.0163881 0.0230502 -0.0186386 -0.00141196 -0.00353474 0.0757212 0.0288567 -0.0208103 0.000927351 -0.0498559 -0.0587358 -0.123538 -0.0486371 -0.0327375 0.0247288 0.0453994 0.0290577 0.031447 0.0118294 0.0175453 0.00317386 0.00736834 0.00347597 0.0117946 -0.00237458 -0.052435 -0.0243332 -0.0318803 0.00438773 0.025265 -0.0154027 -0.0169028 0.075873 0.0922826 0.0395257 -0.0487013 -0.0602437 -0.0721459 -0.126209 -0.0973145 -0.0433224 -0.00138837 0.0428748 0.0642151 0.045051 0.0145236 0.0101638 0.0114768 0.0136842 -0.00127617 0.0146759 0.00630189 -0.00635435 -0.071102 -0.0715349 -0.0282449 -0.0595137 0.0299674 -0.00664572 0.00939116 0.0228578 0.0581385 0.00645061 -0.0304881 -0.115486 -0.118375 -0.105598 -0.0706776 0.00778999 0.0410723 0.0540977 0.0780699 0.0287995 0.00895474 0.0165126 0.00653443 0.0173684 0.0123245 0.00753448 -0.000403806 -0.0141643 -0.0297484 -0.0626247 -0.0259343 -0.0424616 -0.0517064 -0.0481886 -0.036316 -0.00621323 -0.0507283 -0.0579946 -0.0260099 -0.0877015 -0.0770829 -0.0214359 -0.000629461 0.0337005 0.0583235 0.0617232 0.0550814 0.0340288 0.0210355 0.0123858 0.00763192 0.0134365 0.0175205 0.00213247 0.0121926 0.00787727 0.0127712 0.0085506 -0.0344933 -0.0148097 -0.0351729 -0.0514141 -0.0766409 -0.0805737 -0.0506102 -0.0555803 -0.0365532 -0.0770737 -0.000448312 0.0146442 -0.00474183 0.0164183 0.0373451 0.0641129 0.0615012 0.031078 0.0121467 0.000829126 0.0165789 0.00475192 0.016847 0.015625 0.00776242 0.0265856 0.022973 0.0390637 0.0480716 0.0357724 -0.0154888 -0.0317728 -0.0254443 -0.0783707 -0.0640732 -0.0527287 -0.053222 -0.0147584 -0.00977704 0.0146762 0.0112813 0.014951 0.0456147 0.0396156 0.0428999 0.0271702 0.00330462 0.0109151 0.0160526 0.00710526 0.00184211 0.0155314 -0.00120901 0.0178665 0.0241982 -0.00454057 -0.0133953 0.0611922 0.0030378 -0.0637644 -0.0805491 -0.0477384 -0.014184 -0.0413311 -0.00501596 0.0242798 0.022611 0.0207841 0.0235697 0.0213689 0.0516402 0.0361463 0.0220747 0.0178094 0.0111584 0.011211 0.00473684 0.00105263 0.00447368 0.0154434 -0.0106431 -0.00558932 -0.0335666 -0.0473825 -0.0567324 -0.0296918 0.00291925 -0.0161797 0.0145539 0.0228141 -0.00288007 -0.00808144 -0.0100799 0.0110537 -0.0245333 0.018741 0.0235352 -0.000874191 0.014221 0.0253487 0.021045 0.0220736 0.0135217 0.0156609 0.00315789 0.0168421 0.0160526 0.017608 0.0135472 -0.00827224 -0.00395156 -0.0111722 -0.0221555 -0.0544294 -0.0584253 -0.018086 -0.0307258 -0.0274465 -0.0250534 -0.00190822 -0.00461811 -0.017587 0.00172287 -0.00555806 -0.019573 -0.00349317 0.00883084 0.012169 0.000844287 0.0153641 0.0174656 0.0101679 0.0163158 0.00868421 0.00210526 0.0171053 0.00708575 0.0117943 0.00411384 0.0128755 0.014216 -0.00805486 -0.0115559 -0.00277046 -0.0105633 -0.0187128 -0.0262273 -0.0310081 -0.0313859 -0.0233763 -0.0193682 -0.00443544 -0.012571 -0.00205665 0.00296212 -0.0014232 0.00433151 9.19944e-06 0.00921053 0.0110526 0.00947368 0.01 0.00894737 0.0176316 0.00763158 0.00894737 0.0107901 0.00742977 0.0173766 0.0035815 0.00646535 0.0190651 0.00799642 0.00792838 0.0137375 0.00419055 0.00570875 0.00824302 0.0166865 7.8893e-05 0.00852831 0.0136219 0.00812563 0.00444034 0.000335584 0.00368421 0.000263158 0.0144737 0.01 0.00105263 0.00763158 0.00342105 0.0118421 0.0126316 0.00657895 0.00526316 0.0123684 0.0107895 0.0104178 0.0168421 0.0126316 0.0111893 0.0168092 0.0112945 0.00763069 0.0105263 0.00105263 0.0121053 0.00921053 0.015 0.00526316 0.0121053 0.00605263 0.00842105 0.00868421 0.0155263 0.005 0.000789474 0.00657895 0.00394737 0.0102632 0.0176316 0.00156972 0.00203633 0.000904846 0.00460958 0.00878755 -0.00201321 0.00203027 0.0127074 0.00339449 -0.0022828 0.0133677 0.00728627 0.013761 0.00994549 0.00197161 0.0155211 0.0128669 0.00767229 0.00135728 0.00184211 0.0155263 0.00447368 0.005 0.00131579 0.0102632 0.00263158 0.00256352 0.00292992 0.00821926 0.0123681 0.00365518 -0.00593802 -0.00459899 -0.0157125 -0.027564 -0.0365788 -0.028105 -0.0395929 -0.0302036 -0.014973 -0.028605 -0.0175893 0.0138243 0.00577286 -0.00309574 0.00976346 0.00564522 0.00915087 0.00507124 0.0123684 0.00473684 0.0163158 0.0155263 0.0153347 0.00703011 0.00205964 0.0213751 0.0086545 0.0282834 0.0190996 -0.0208458 0.00348642 0.00437533 -0.0207672 -0.0604114 -0.0595685 -0.0155065 -0.0160322 0.0272083 0.0411049 0.0532512 0.0391437 0.00510962 -0.0053895 -0.0110777 -0.00355915 0.0140789 0.00634119 0.0160526 0.00394737 0.00342105 0.00486534 0.0156959 0.0329074 0.0591969 0.0418177 0.0865573 0.165691 0.10331 0.135044 0.0976726 -0.0518735 -0.0427929 -0.00371837 0.128785 0.146945 0.014425 0.0515559 -0.0225925 -0.105895 -0.038374 -0.0203292 -0.0370745 0.026641 0.0379253 0.0074738 0.0111278 0.0157895 0.0126316 0.0130048 0.0175582 0.0419027 0.0668396 0.225055 0.273848 0.151629 0.0298767 0.026212 -0.0654549 -0.180037 -0.093065 -0.0785075 0.0856342 0.223457 -0.083261 -0.12568 0.030446 0.0485503 -0.0322637 0.0486991 -0.0185094 0.0172413 0.00558376 0.00816054 0.00939675 0.0123684 0.0130976 0.0164309 0.0175601 0.093015 0.111427 0.135347 0.0400788 0.043732 -0.00187818 0.0152365 -0.200256 -0.323064 -0.222475 -0.129257 -0.016388 -0.0643406 -0.10448 -0.0188514 -0.044961 0.0677867 -0.0249441 -0.0129729 -0.00316283 0.00495192 0.00226417 0.00843544 -0.000313129 0.0164961 0.0209849 0.0116974 0.0669223 0.182029 0.0896385 0.0338166 0.0177542 -0.0661017 0.0548394 0.0942225 -0.225563 -0.401843 -0.279296 -0.0941613 -0.0855445 -0.332075 -0.367824 -0.243059 0.0671825 -0.0379699 -0.249008 -0.201567 -0.221645 -0.134304 -0.0398205 0.00883492 -0.00138812 0.00602108 0.00301752 0.027678 0.0519827 0.127446 0.0914111 0.174308 0.281523 0.16293 0.217525 0.119031 -0.239452 -0.22839 -0.235724 -0.154677 -0.372961 -0.156518 -0.0604964 0.0494338 0.162331 -0.00728285 -0.0936491 -0.0642048 -0.112839 -0.086496 -0.0397041 0.0227736 0.017077 0.0106521 -0.00041151 0.0326023 -0.0184973 0.0887033 0.195852 0.34277 0.0786253 0.0560674 -0.0766422 -0.202182 -0.285853 -0.492133 -0.212326 -0.354966 -0.295778 -0.331007 -0.00290988 -0.0134163 -0.0859698 -0.127294 -0.0126622 0.0932694 0.108621 0.0216636 0.0655984 0.0191745 0.0141049 0.0134864 0.00111065 0.00476524 -0.0703751 -0.0291335 0.0471098 -0.0584155 -0.271506 -0.188627 -0.428068 -0.34891 -0.33298 -0.43291 -0.0871723 -0.0322659 -0.154993 -0.132997 0.0657721 0.0427639 0.0301327 -0.00463397 -0.0937355 0.0998729 0.178555 0.0695602 0.0826683 0.0295346 0.0166609 0.000221739 0.00087848 0.0119991 -0.138787 -0.134578 -0.137357 -0.24524 -0.415855 -0.454822 -0.362789 -0.367632 -0.203202 -0.269863 0.0106351 0.126442 -0.0109125 0.0644824 0.108003 -0.0260976 0.0452408 0.0445212 -0.157977 -0.0316995 0.0259652 0.0502309 0.0637205 0.0223979 0.00869965 0.00631579 0.0158109 0.0184628 -0.152417 -0.216685 -0.127742 -0.215691 -0.313647 -0.360615 -0.236833 -0.0824823 -0.188271 -0.189056 -0.180886 0.0952164 0.0870203 0.151507 0.173707 -0.150932 -0.0891923 -0.0487201 -0.179586 -0.216825 -0.091326 0.00174917 0.034515 0.0271318 0.0131954 0.0131579 0.00533437 0.0049078 -0.00154835 -0.203316 -0.247143 -0.237553 -0.275542 -0.230723 -0.133999 -0.142564 -0.151674 0.0126122 -0.0373563 0.294546 0.136253 0.122987 0.0391191 -0.265669 -0.427356 -0.173514 -0.111798 -0.227939 -0.135224 -0.0720666 -0.000924902 0.00986399 0.00751274 0.00157895 0.0100354 0.0132009 0.00766803 -0.0501531 -0.284983 -0.416092 -0.275877 -0.0696104 0.0555906 -0.0839443 -0.0301874 0.018792 -0.153133 0.27716 0.34123 0.0225871 0.0285153 -0.18421 -0.38062 -0.103258 0.0248931 -0.0849601 -0.0353728 -0.0772908 -0.0134946 0.00156739 0.0019026 0.0150002 0.0174478 0.0230947 0.0193314 -0.010438 -0.109639 -0.155233 -0.0800962 -0.200238 -0.237364 -0.230855 -0.103677 -0.200123 -0.210606 0.0242555 0.249917 -0.15777 -0.208421 -0.140937 -0.159846 0.0641296 0.193373 0.12549 0.0444964 -0.0538708 -0.0331833 0.0172139 0.00317203 0.0023698 0.00969744 0.0446642 0.0279793 0.0354206 -0.0400237 -0.0697686 -0.0548907 -0.1627 -0.255989 -0.363189 -0.249149 -0.161661 -0.065875 -0.144917 -0.213654 -0.17038 -0.351951 -0.0476078 0.0212238 0.0231424 0.192039 0.129963 0.0526606 0.0075942 -0.0546974 -0.00051578 0.00962651 0.00789474 0.00953863 0.0368172 0.0675261 0.0800766 0.0304876 0.0130374 -0.0230967 -0.28832 -0.545761 -0.735267 -0.592466 -0.441457 -0.251208 -0.324074 -0.226548 -0.174566 -0.245374 -0.254733 0.0618719 0.0981297 0.305695 0.103143 -0.0427235 -0.0574824 -0.079359 0.00988784 0.00210751 0.000832064 0.0155273 0.0282529 0.122513 0.112845 0.132533 0.0924466 -0.214635 -0.247699 -0.41369 -0.591259 -0.581471 -0.676896 -0.511913 -0.465852 -0.22317 -0.129001 -0.123324 -0.122316 0.02276 0.142951 0.326774 0.0960388 -0.149614 -0.129831 -0.0469088 0.0138797 0.0103831 0.0165789 0.00406835 0.00316021 0.131767 0.116158 0.0830508 0.111674 -0.067013 -0.121167 -0.162887 -0.379534 -0.577885 -0.661682 -0.492643 -0.374954 -0.2194 0.0254973 0.0950583 0.140549 0.000233872 0.057454 0.321457 0.0323724 -0.0970368 -0.0789635 -0.033106 0.00763585 0.00743527 0.00342105 0.00517669 -0.00128911 0.101023 0.129656 0.0143968 -0.0176612 0.00859834 -0.0394918 -0.132981 -0.285668 -0.390374 -0.521701 -0.316063 -0.124259 -0.0946525 -0.0320425 0.238795 0.183232 -0.0603556 0.0867743 0.112249 -0.0779171 -0.179574 -0.125089 0.000650001 0.0048113 0.0144738 0.0152765 0.01064 0.00184033 0.0829582 0.0933649 -0.0692207 -0.107941 0.0198899 -0.0319237 -0.383564 -0.263915 -0.168176 -0.0378386 0.177127 0.00968299 -0.0607076 -0.0449963 0.0430656 -0.0681401 0.0891537 0.0587482 -0.112057 -0.230154 -0.192472 -0.0890614 -0.00404646 0.000623446 0.00657895 0.0005393 0.00026733 0.000741265 0.0275713 0.105591 0.0384326 -0.0951755 -0.298896 -0.33416 -0.328052 -0.216747 -0.0375302 0.14556 0.103861 -0.038067 -0.00705377 -0.196996 0.0139681 -0.011036 0.0786895 -0.0665557 -0.27095 -0.214571 -0.0793619 -0.0370139 0.0111659 0.00968725 0.0115789 0.000526316 0.00315789 0.00897452 0.0435166 0.103956 0.136667 0.243967 0.0708759 -0.10366 0.199908 0.181811 0.0995602 -0.0686813 0.00626763 -0.098013 -0.173448 -0.255113 -0.0173647 0.093401 0.08608 -0.135054 -0.326318 -0.2325 -0.0257239 0.00738626 0.0143958 0.00915914 0.00947368 0.0134211 0.000263158 0.0139159 0.0671115 0.106164 0.15379 0.303175 0.428787 0.353035 0.259832 0.295916 0.165162 0.0310167 0.101334 0.0682512 -0.00803726 0.0896825 -0.0263541 -0.0643695 -0.0716218 -0.238512 -0.242109 -0.162258 -0.0208818 -0.0168934 -1.14351e-05 0.000887463 0.0168421 0 0.0152632 0.0184231 0.00757088 0.0285173 0.055177 0.109953 0.170894 0.226147 0.223901 0.20445 0.144951 0.367862 0.292356 0.0713174 0.00423737 -0.0400885 -0.065976 0.0288901 0.0621606 -0.0482176 -0.186376 -0.114658 0.0024393 0.0112448 0.0104579 0.00681653 0.0157895 0.00342105 0.0155263 0.0121053 0.00940061 0.00179318 0.00151718 -0.00259628 0.00485125 -0.000441156 0.0100903 -0.00419884 -0.00601233 -0.0078176 0.0293883 0.014386 0.0110483 0.00675473 0.00310352 0.0279768 0.0300008 -0.00126589 -0.00216728 0.00580958 0.00624011 0.00783067 0.00184211 0.000263158 0.00342105 0.00657895 0.00868421 0.0123684 0.00657895 0.00368421 0.00263231 0.00518065 0.00314431 0.0156428 0.0128411 0.018504 0.0220643 0.0235561 0.0199438 0.0184005 0.00293215 0.0163791 0.00130639 0.0146469 0.00145865 0.0025838 0.0116821 -9.06625e-05 0.00741965 0.000263158 0 0.00973684 0.0113158 0.0168421 0.00552632 0.00684211 0.00315789 0.00473684 0.0176316 0.0121053 0.0123684 0.00631579 0.00995698 0.00368421 0.0168421 0.00810223 0.00276304 0.0160417 0.00973639 0.00763158 0.0113158 0.00447368 0.0168421 0.00421053 0.0123684 0.00421053 0.0121053 0 0.00947368 0.005 0.0102632 0.0105263 0.0110526 0.0110526 0.0136842 0.0173684 0.0147353 0.0148946 0.000983488 0.00256138 0.00814451 0.00769083 0.00109407 0.00946314 0.00731414 0.00529757 0.00748061 0.00165618 0.0118581 0.0172326 0.00711299 0.00909565 0.0167778 0.00576968 0.0104378 0.00605263 0.005 0.00842105 0.000263158 0.00473684 0.00289474 0.000789474 0.00525941 0.00289169 0.00757975 0.0060951 0.0122066 0.0072727 0.00721301 0.0181164 0.0172136 0.0164931 -0.00317354 -0.00255661 -0.00906563 -0.000592487 0.0110924 0.00955108 0.00268492 0.0136911 0.00968948 -0.00222149 0.000235335 0.0134997 0.0178627 0.000263158 0.00236842 0.00289474 0.0115789 0.00982408 0.00888407 0.00101287 0.0139183 0.0162297 0.00431099 0.014322 0.012144 0.0018801 -0.00110083 0.0123686 0.00713315 -0.00992691 -0.0127073 -0.0107909 0.00569055 0.019118 0.0113885 0.0156171 0.0185036 -0.00269889 0.00196802 0.00589369 0.00339991 0.0183373 0.00236842 0.00131579 0.0126316 0.00488872 0.00278336 0.0100758 0.00503162 0.00515375 0.0111386 0.0188767 0.00816413 0.00465774 0.0162876 0.0206171 -0.00540271 -0.0573814 -0.0333724 -0.0469414 -0.0191573 0.0305855 0.00968466 0.00357594 -0.00577278 -0.0142738 0.0059368 0.0166588 0.0114141 0.0156351 0.000336446 0.0176316 0.0142105 0.00507467 0.00761141 0.0103282 -0.0117479 -0.000158373 0.00716755 0.0122401 0.00119134 0.00929439 0.0181606 -0.0356828 -0.081388 -0.0672293 -0.0515907 -0.0381024 -0.0249119 -0.00654094 -0.0325151 -0.0150531 -0.0451761 -0.0131102 -0.025132 0.016426 0.0227287 0.0138158 0.0146194 0.00815789 0.00554187 0.015413 0.0137265 0.0193342 0.0115417 0.0121138 0.00924225 0.0269812 0.0252397 0.0151185 0.0242897 -0.0236026 -0.054268 -0.0102206 0.0131688 0.00600159 0.017239 0.00284084 -0.0197412 -0.0174748 -0.0253601 -0.0191471 -0.0377587 0.0155142 0.0104618 0.0117218 0.0112374 0.00921561 0.0124894 0.0205263 0.0232743 0.0174674 0.00975672 0.0267808 0.00839273 -0.00157464 0.0102107 0.0265752 0.0361578 0.00161228 -0.0443283 0.00368994 0.0112715 0.00953321 0.021471 -0.0211799 -0.0180197 0.00121701 -0.0101735 -0.0237738 -0.0329199 -0.00701056 0.0235277 0.00932683 0.0146893 0.00208713 0.00519633 0.00535296 0.00875908 0.0117049 0.00771315 -0.00638224 -0.00678904 0.0202909 0.0297699 0.00650719 0.0345807 0.00671414 -0.0734099 -0.00510275 0.0205461 0.00148363 -0.0132837 0.00378994 -0.0319214 -0.0142564 -0.0215372 -0.0153138 0.00371553 0.00716945 0.0231382 0.00757579 0.0139196 0.00218544 0.00753663 0.015502 0.00479772 0.0166037 -0.00458852 -0.00125791 -0.0188491 0.00463948 -0.00288681 -0.0469571 0.0196535 0.0276009 -0.0589416 -0.0404679 -0.00113059 -0.0226653 -0.0276387 -0.0312118 -0.0415886 -0.0234627 -0.0146705 -0.00164629 0.00664183 0.0342292 0.0392349 0.0133265 0.0129874 0.0159743 0.00192315 0.0112933 0.0164668 0.0201302 0.0119099 0.0055736 -0.00253246 0.0149569 0.000810011 -0.0326142 -0.00158668 -0.0248735 -0.0868046 -0.0754329 -0.0383042 -0.00372322 -0.0586177 -0.0277388 -0.0326516 -0.00971955 -0.029138 -0.026614 -0.0113625 0.0153739 0.030286 0.019211 0.00268356 0.0106354 0.0134346 0.0131872 0.0150508 -0.00712506 -0.0349721 -0.010675 -0.00291793 -0.003847 -0.00354305 -0.0254534 0.017001 -0.0237235 -0.108534 -0.0981226 -0.0555998 -0.0271095 -0.0429614 0.00382613 -0.014888 -0.0234956 -0.0690449 -0.0633161 -0.0401041 -7.70458e-05 0.00792392 0.0182126 0.0013111 0.00763158 0.00829627 0.00802824 0.0159296 -0.0152622 -0.0413279 -0.0337902 -0.00752426 0.0194812 -0.0194045 0.0243712 -0.00383095 -0.0706707 -0.144982 -0.0989087 -0.0463591 -0.00763914 -0.0340943 -0.0237626 -0.0412714 -0.0149808 -0.0783038 -0.0897788 -0.0663643 -0.0169572 0.00864752 0.00813249 0.004746 0.00447368 0.012915 0.00795018 0.015399 -0.0276671 -0.0262001 -0.0141115 0.00319041 -0.000723195 -0.0156561 0.0415548 0.00391509 -0.0401568 -0.0780402 -0.0327941 -0.0450098 -0.0383262 -0.0198327 -0.0259099 -0.0325599 -0.0214636 -0.0250063 -0.0597261 -0.0332716 -0.0126038 0.00187878 0.00988329 0.00330062 0.01 0.0155452 0.0104101 0.0178513 -0.0112941 -0.0376756 -0.0137749 -0.00948619 0.00256647 0.00703954 0.00809627 -0.0158761 -0.0277305 -0.0516354 -0.020425 -0.00461845 -0.0247208 -0.0134273 -0.0115204 -0.00498804 0.0247799 0.0274499 0.0179226 0.0137614 0.00454041 0.0111181 0.0101286 0.00287956 0.00763526 0.0172214 0.00623635 0.0137016 -0.0156111 -0.0384419 -0.0219867 -0.0147426 -0.0358777 -0.0492866 -0.0259311 -0.0366576 -0.0347868 -0.064145 -0.0357851 -0.00168045 -0.0122576 0.0290356 0.023 0.00838603 0.0380654 0.0545613 0.0463681 0.0403832 0.0153836 0.00828811 0.0141974 0.0129628 0.00896836 0.014463 0.0176481 0.00975011 0.011438 -0.0133506 -0.0406041 -0.0537065 -0.0558164 -0.0753956 -0.0711551 -0.0615958 -0.0273313 -0.0214604 -0.0250711 0.0313898 0.00749383 0.0394175 0.0272561 0.0328893 0.0288863 0.069839 0.0351359 0.0325254 0.0133738 0.00796402 0.00791032 0.0130934 0.00236842 0.00913797 0.0173421 0.0135943 0.0100284 -0.0120562 -0.0247597 -0.0429637 -0.0587977 -0.098191 -0.107968 -0.0887501 -0.0629958 -0.0601508 -0.0418436 0.0159005 -0.00536778 0.0322995 0.0334003 0.0130321 0.010856 0.0606263 0.0355142 0.01257 0.00820613 0.0101302 0.00146644 0.0160074 0.00366657 0.00184247 0.0193907 0.0282762 0.0348912 -0.0135591 0.0111785 -0.00570472 -0.0181633 -0.085825 -0.0872536 -0.0540921 -0.0657055 -0.0846611 -0.0409293 0.00593762 0.0187079 0.0381452 0.0238597 0.0338796 0.0257396 0.0435597 0.0361834 -0.0145494 -0.000519344 0.00171199 0.0105152 0.00515926 0.0136842 0.0100022 0.00333309 0.0253386 0.0250702 0.0149705 0.00314277 -0.0109909 0.0241872 -0.0165851 -0.0211906 -0.0212162 -0.0110795 -0.0521184 -0.00321776 0.0252887 0.00206211 0.00883722 -0.00460892 0.00608348 0.0063276 0.00668872 -0.0243828 -0.0016085 0.00465853 0.00251362 0.00745129 0.00747518 0 0.00551996 0.00250884 0.0170115 0.0300967 -0.00225847 -0.0294896 -0.0444691 0.00884633 0.00808015 -0.0211865 0.0124397 -0.0058661 -0.047122 -0.0547912 -0.0250805 -0.0188067 -0.0322918 -0.0175636 -0.0213285 -0.0342017 -0.0636379 -0.0263161 -0.0287716 -0.00561198 0.0167913 0.00635365 0.00631611 0.00525529 0.00500728 0.0083891 0.0139661 0.00683831 -0.0415885 -0.0859963 -0.07553 -0.0450575 -0.0176035 -0.00367281 0.000804829 -0.00822803 -0.0628125 -0.0878855 -0.0614048 -0.0388578 -0.0534808 -0.0198967 -0.00208686 -0.0401355 -0.037719 -0.0182899 -0.0162255 -0.0123638 0.00854094 0.000958706 0.00605263 0.0107818 0.0110502 -0.000127808 0.00375823 0.0129103 -0.0444683 -0.0680859 -0.0642047 -0.0536704 -0.0164632 0.0210252 -0.00994083 0.00246648 -0.0860072 -0.0894704 -0.0788172 -0.0155297 -0.00869087 -0.00729548 -0.014588 -0.0317289 -0.0309939 -0.00459468 0.00202297 0.0131169 0.0108411 0.0146299 0.00552632 0.0173684 0.0176316 0.0147188 0.0181153 0.0160116 0.0297541 0.0369156 0.0242516 -0.0281468 0.0122444 0.0393575 0.0185634 -0.0230793 -0.0917058 -0.087161 -0.054175 -0.0144861 -0.0302194 -0.0162627 -0.0267851 -0.0457883 -0.0261977 -0.00994473 0.00335409 0.00887003 0.0135151 0.0104358 0.00815789 0.00263158 0.00578947 0.000598214 0.00685743 0.0187695 0.0389435 0.0559297 0.0591467 0.0249701 0.00308312 0.00505223 -0.00718274 -0.0259569 -0.0135611 -0.0471994 -0.0283493 -0.0155678 0.0137209 -0.00777199 -0.0251095 -0.0126434 -0.00942121 -0.00691903 0.00958163 0.0132556 0.0167356 0.00299034 0.0134211 0.00973684 0.0102632 0.0110842 0.00233102 0.00610554 0.0226878 0.0253115 0.0326749 0.0385625 0.0276058 -0.00125791 0.0183754 0.0229812 0.0100254 -0.0107072 0.0239639 0.0179688 -0.00970072 0.014448 0.0121778 0.0179494 0.00186317 0.000994233 0.00572598 0.00944423 0.0093095 0.00985526 0.00131579 0.0160526 0.0110526 0.0118421 0.0147744 0.00108394 -0.00612819 0.0040065 0.018214 0.0225697 0.0223372 0.00594494 -0.00841697 0.0168964 0.034526 0.0224641 0.0308325 0.0133147 0.000335683 0.0129215 0.0191986 0.0135569 0.00428996 0.0157734 0.00987794 0.0134378 0.0131579 0.00236842 0.00763158 0.00552632 0.00131579 0.00868421 0.00552632 0.005 0.0097387 0.00112288 0.0158339 0.0154954 0.0121416 0.0147828 0.0112447 0.0130398 0.015387 0.00222049 0.0148871 0.0141409 0.0172791 0.0129773 0.0051091 0.0133792 0.00887427 0.0145536 0.000896263 0.00894737 0.015 0.00710526 0.00421053 0.0131579 0.0102632 0.000263158 0.0131579 0.0165789 0.00868421 0.00105263 0.00815789 0.0142105 0.00230061 0.0155263 0.00447368 0.0159943 0.00697248 0.0157838 0.0176313 0.00657895 0.0134211 0.0105263 0.00710526 0.0113158 0.00710526 0.00315789 0.0118421 0.0115789 0.0126316 0.00105263 0.00842105 0.00973684 0.000789474 0.0134211 0.0105263 0.00842105 0.00947455 0.00613425 0.00626331 0.0129011 0.0178272 0.0189828 0.0189467 0.0190547 0.0136854 0.0100946 0.0144824 -0.00245923 0.0116701 0.0154941 0.0174616 0.000994581 0.000881219 0.0168227 0.0152135 0.0118421 0.00157895 0.00473684 0.00473684 0.0163158 0.00315789 0.01 0.00868153 0.00946206 0.00222233 0.000622871 0.00867546 0.00538493 0.00684424 0.0152962 0.0233242 0.0202364 0.0281207 0.00759519 0.00479297 0.0126652 0.0243855 0.00625636 0.0204158 0.00971282 -7.39966e-05 0.0111852 0.00314758 0.0167425 0.00780354 0.005 0.00368421 0.00105263 0.0123684 0.0121236 0.0127125 0.0109847 0.0134205 0.00660102 0.0077369 0.0149022 0.0207111 0.0327194 0.0242198 0.0262211 0.0278864 -0.000101842 -0.0344152 -0.0355124 -0.0138479 -0.0132385 0.00124344 0.0089569 0.00898539 0.00906757 0.019057 0.0137129 0.0112393 0.00153824 0.0128947 0.0105263 0.00394737 6.93672e-05 0.0154644 0.0117511 0.00384817 -0.000654644 0.000287125 0.00407676 -0.00802617 -0.00532309 -0.0053676 -0.0201723 -0.0490977 -0.0774878 -0.0790231 -0.0337347 0.00560449 -0.0235127 -0.0469715 -0.00854974 0.011945 0.00114862 0.0144276 0.0100052 0.00968253 0.0128412 0.00181228 0.0152632 0.0115789 0.0144907 0.00566573 0.00164847 -0.00259583 0.00352873 0.0065847 -0.00471162 -0.0141395 -0.0691754 -0.0964378 -0.162831 -0.158346 -0.0462159 -0.0241917 -0.0603515 -0.0478175 -0.0780689 -0.0431827 -0.0492807 -0.0303911 -0.00802426 0.011035 0.00766644 0.0106905 0.0100489 0.0160738 0.00210526 0.0047174 0.00525632 -0.00117536 -0.00236176 -0.0238981 -0.040182 0.0037737 0.0115716 -0.0681459 -0.161213 -0.130589 -0.126348 -0.00761128 0.122988 0.106643 0.121953 0.076349 -0.1483 -0.171841 -0.0776187 -0.118453 -0.0285502 0.0124788 0.0221075 0.011436 0.00883398 0.0157309 0.00868954 0.0133297 0.013074 0.0111048 -0.0147425 -0.0410009 -0.0434845 -0.0322106 -0.0956175 -0.106401 -0.116635 -0.0284861 0.148181 0.189892 0.165972 0.0711399 -0.0212173 -0.172639 -0.246166 -0.293683 -0.146546 -0.151871 -0.0723297 0.035267 0.0560995 0.0195028 0.0154848 0.00137891 0.0110199 0.00934832 0.00478315 -0.000301485 -0.00926005 -0.023838 -0.0688189 -0.103467 -0.0589138 -0.0835719 0.0806385 0.185083 0.113143 0.0419739 -0.0342048 -0.163036 -0.27921 -0.185026 -0.112079 -0.184654 -0.159777 -0.131732 -0.0652754 0.00998839 0.0411012 0.0103053 0.00851969 0.00596447 -2.30353e-05 0.0135652 -0.000303507 0.00494729 -0.0186733 -0.0552654 -0.0811218 -0.0728528 -0.0483962 0.109978 0.136953 0.0271143 -0.0744724 -0.0459812 -0.132619 -0.199381 -0.379886 -0.102072 -0.055313 -0.111951 -0.181323 -0.127317 -0.0547469 -0.0142769 -0.00662038 0.0132249 0.00665453 0.00889492 0.000725434 0.0026631 0.0143477 0.00472382 -0.0241479 -0.0283018 -0.050164 -0.0456489 0.107227 0.0762576 0.0857535 -0.0286351 0.0313013 0.00870529 -0.124052 -0.123635 0.035939 -0.0946603 -0.0568001 -0.061918 -0.167261 -0.165019 -0.0790825 -0.0290725 -0.00488251 -0.0148941 -0.000409862 0.00374853 0.0138958 0.0117806 0.00415084 0.00584048 -0.00978113 0.00687082 0.00815804 0.0188575 0.103608 -0.0133829 0.0131852 0.0114868 0.124129 0.00452842 -0.0731613 0.134825 0.19333 -0.00341734 0.117017 -0.00446183 -0.0846852 -0.145965 -0.0517394 -0.0299249 -0.0331813 -0.0282944 -0.00800805 0.0126281 0.00763158 0.0111792 0.0125501 0.00137864 -0.00245675 0.00385338 -0.00992001 0.0741955 0.0773183 -0.00159526 -0.025363 -0.00787408 0.00290148 0.0153509 0.0691269 0.190251 0.0885832 0.0866045 0.127105 0.0801613 -0.0645909 -0.0877398 -0.0268569 -0.00863207 -0.018441 0.00151736 0.00595873 0.00332677 0.00315789 0.0175928 0.00630888 0.00432355 -0.00977708 -0.0290443 0.00931304 0.12347 0.0659143 -0.023344 -0.0167601 0.0758749 0.0153829 0.0649004 0.142999 0.127086 0.124204 0.077181 -0.0209996 0.0540124 -0.120518 -0.164421 -0.0554865 -0.0308136 -0.0368532 -0.00106797 -0.00067838 0.0154614 0.0160526 0.00908284 0.0113643 -0.000266845 -0.00302099 -0.0302831 0.0186924 0.0843585 0.0970734 -0.022854 -0.0971054 0.104865 0.00423746 -0.037139 -0.139419 0.133878 0.119243 -0.0200385 -0.032432 -0.0695387 -0.175011 -0.190421 -0.103331 -0.0608909 -0.0365563 0.0103791 0.0132479 0.012109 0.0107881 0.0104593 0.00481543 -0.0117068 -0.00591092 -0.00810417 -0.0203799 -0.044412 0.032646 0.0576222 0.0233118 0.0854749 -0.0703952 -0.00300822 -0.0950786 0.219203 0.0891987 0.0974038 0.0657331 -0.0120524 -0.158667 -0.148739 -0.106268 -0.0899157 -0.0293195 0.00899682 0.0170536 0.0133273 0.0173605 0.00616006 0.0134075 0.0043907 -0.00303999 -0.0201504 -0.0743761 -0.0544678 -0.0864072 -0.0940366 0.0622563 0.188513 0.0440068 -0.0884246 0.0329682 0.0425926 -0.0626726 0.0207192 -0.0374788 0.01708 -0.0975439 -0.0964948 -0.0262531 -0.0435759 -0.0290992 0.0235324 0.0124182 0.00100891 0.0160526 0.00564806 0.0119597 0.00169262 0.00659261 0.00960079 -0.0274268 0.0232506 0.030088 -0.0999079 -6.75369e-05 0.119923 0.0185744 -0.0268589 0.143913 0.0946784 -0.128406 -0.0472166 -0.0731296 -0.0969947 -0.117027 -0.104558 -0.0468966 -0.0136146 0.00283152 0.0274665 0.00652649 0.014571 0.00242342 0.00052615 0.0131678 -0.00446992 -0.00920695 -0.0128327 0.00266762 0.0384103 0.0951098 0.0448777 0.04967 0.140559 0.107102 0.0733368 0.0243245 0.0205168 -0.0422628 -0.120825 -0.175695 -0.187796 -0.0865895 -0.0245992 -0.00915441 -0.000935158 0.00602571 0.0112724 0.0181846 0.0034925 0.0152632 0.0110165 0.013896 0.00236024 -0.00344154 -0.0437826 -0.00741672 0.00509768 -0.00701212 0.0591215 0.0191514 -0.0189555 -0.0397821 -0.0800411 -0.0336313 -0.0588152 0.0581271 -0.178808 -0.107121 -0.159633 0.0244909 0.0511647 0.0298039 0.00693603 0.0231047 0.0276358 0.0192476 0.00211182 0.0139474 0.0153311 0.00785045 -0.00696805 -0.0238565 -0.0315324 -0.0273099 -0.0342431 -0.0268423 -0.0395678 -0.0702122 -0.134389 -0.172415 -0.104924 -0.0190297 -0.0578109 0.0714763 -0.0969302 -0.0815082 -0.16634 0.0154178 0.0674774 0.0675598 0.0412725 0.0358741 0.0255367 0.00249483 0.00973698 0.0160595 0.0147442 0.0111889 0.00272865 -0.0103352 0.00554659 -0.0219317 -0.0779093 -0.0213769 -0.0418588 -0.0849031 -0.181803 -0.155178 -0.11627 -0.0725694 -0.0198985 0.093393 -0.108678 -0.038299 -0.174818 0.0310506 0.0914165 0.0582857 0.0342031 0.0342396 0.0143538 0.0159057 0.0152632 0.00369092 2.1546e-06 0.00908868 0.00065089 0.000884037 0.0043752 0.0190546 -0.0240464 -0.0252611 -0.0698858 -0.0794734 -0.187557 -0.0670303 -0.102772 -0.0401649 -0.0669302 -0.0176563 -0.0204712 -0.0507806 -0.210114 -0.0317536 0.0544107 0.0294443 0.0238507 0.018402 0.00338156 0.0007419 0.0113158 0.00763158 0.000789474 0.0036161 0.0113075 0.00122525 -0.0167261 -0.0123027 -0.0306378 -0.0196076 -0.0743572 -0.0680454 -0.139396 -0.09188 -0.110861 -0.0498998 -0.108071 -0.132513 0.00391589 0.0235455 -0.0691866 0.0340879 0.0620182 0.00878996 0.00934436 0.0238988 0.015625 0.00232409 0.00157895 0.0126316 0.0110526 0.0129443 0.00151791 -0.00268035 -0.0217777 -0.0257218 -0.0269579 -0.0466781 -0.0683318 0.0160502 -0.0745987 -0.229322 -0.0475979 0.01841 -0.0705224 -0.0514993 -0.0264093 -0.0573864 -0.0872631 0.0109772 0.0407897 0.00228785 0.00556181 0.0128497 0.00666063 -0.00104703 0.0160526 0.0147368 0.00789474 0.00257898 0.0089649 0.00796795 0.0197575 0.0135713 0.00876811 0.0277432 0.0404227 0.0235516 -0.0243429 -0.0751826 -0.0398485 0.0741223 0.08322 0.169283 0.106871 0.018905 -0.0278379 0.0396782 0.0162181 -0.00382591 0.00461362 0.00555981 0.00336829 0.0138372 0.00552632 0.00631579 0.00868421 0.0157895 0.000832109 0.003785 0.0194198 0.0117882 0.00181862 0.00929562 0.0175628 0.0262043 0.0227108 0.0375741 -0.0155848 0.0790869 0.212483 0.15957 0.0864155 0.0313036 0.008235 0.035455 0.0439275 0.00637251 0.00824609 0.0113397 0.0168421 0.0128947 0.00815789 0.00184211 0.0105263 0.00473684 0.0123684 0.00657895 0.012895 0.00471867 0.00720184 0.00420585 -0.00102087 0.00752135 0.00977118 0.0126923 0.0168163 0.0129049 0.0156943 0.0098648 0.0106394 0.00649702 0.0121742 0.0143439 0.00248244 0.0114785 0.0133387 0.00157895 0.0165789 0.0173684 0.0121053 0.0168421 0.01 0.00710526 0.0110526 0.00921053 0.0123684 0.00947368 0.0165789 0 0.00940784 0.00184211 0.0134211 0.0172061 0.00638368 0.0126692 0.000780075 0.00447368 0.00473684 0.000526316 0.00289474 0.00289474 0.0118421 0.0131579 0.015 0.00868421 0.0171053 0.00657895 0.00736842 0.0147368 0.0105263 0.0176316 0.00710526 0.00842105 0.0126314 0.00603604 0.0172668 0.00908238 0.0160948 0.0133699 0.0150029 0.00968898 -0.00267972 0.00669416 0.00745651 0.0140852 0.0152727 0.00287435 0.0152612 0.00891448 0.00907608 0.00867001 0.0125694 0.00552632 0.0107895 0.0126316 0.00868421 0.0115789 0.00868421 0.0168421 0.0175965 0.00961619 0.0134058 0.014592 0.0166417 0.00576974 0.00991789 0.0184487 0.00492788 0.0108974 0.0211385 0.0399798 0.0328011 0.0292392 0.0290341 0.0207767 0.0338819 0.0208024 0.0155515 0.0151941 0.0134465 0.0153132 -0.000544583 0.00552632 0.0113158 0.00131579 0.00921053 0.00435737 0.013516 0.0148202 0.00316583 0.019063 0.00858331 0.0079071 0.000940031 0.00957307 0.0271884 0.0198782 0.028219 0.0318453 0.0336404 0.0282402 0.0299557 0.0356985 